#pragma once
#include <stdint.h>
#include <stddef.h>

// kernel shape: {5, 30, 32}
static const int kernel_rank = 3;
static const int32_t kernel_shape[3] = { 5, 30, 32 };
static const size_t kernel_size = 4800u;
static const float kernel[4800] = {
  -5.21485135e-02f, -2.27296367e-01f, -2.63751119e-01f, 3.04162562e-01f, 3.09114039e-01f, 1.92747220e-01f, 3.14972967e-01f, -2.99282849e-01f, 3.85155380e-01f, 5.78248501e-02f, 3.74001041e-02f, -8.21984559e-02f,
  6.70885891e-02f, 1.76710978e-01f, 2.50444561e-01f, -3.32236290e-02f, -5.72265759e-02f, -1.42724201e-01f, 4.48178640e-03f, 2.77103707e-02f, 1.68380588e-01f, 9.72916409e-02f, 7.56502301e-02f, 6.19922429e-02f,
  -2.19252959e-01f, 6.78056777e-02f, -1.13973022e-01f, 2.32178584e-01f, -8.56969729e-02f, -2.13780440e-02f, 1.20159648e-02f, 1.34799674e-01f, -2.91961757e-03f, 1.51794493e-01f, -1.92940608e-01f, 3.26081485e-01f,
  -8.84695202e-02f, -2.02404752e-01f, -1.42678589e-01f, -4.64951023e-02f, -1.63654773e-03f, -9.46429521e-02f, -3.94445322e-02f, 1.70448631e-01f, -3.36189941e-02f, 2.18015630e-02f, -4.04046178e-02f, -2.54402339e-01f,
  -5.71525507e-02f, 8.81470069e-02f, 8.77138600e-02f, 4.10741791e-02f, -7.33411834e-02f, -2.75956482e-01f, -1.25318795e-01f, -5.14387786e-02f, 2.23421067e-01f, -1.16358705e-01f, 7.16552213e-02f, 2.45380774e-02f,
  1.95046455e-01f, 9.61941332e-02f, -6.75500259e-02f, -1.54606968e-01f, 1.50775835e-01f, -1.15655676e-01f, -2.18979418e-01f, 4.27878238e-02f, -1.42969638e-01f, -1.25120774e-01f, -1.13336429e-01f, -2.10863993e-01f,
  -2.50979252e-02f, 4.77712974e-02f, -1.12057522e-01f, -3.11188102e-02f, 7.66299739e-02f, 3.17782909e-02f, -2.51766980e-01f, -3.52711752e-02f, -1.10944986e-01f, -1.51809929e-02f, 5.51552400e-02f, 1.43663799e-02f,
  1.13665223e-01f, 1.00904390e-01f, -1.23743817e-01f, 9.08068866e-02f, -6.23358041e-02f, 1.00732809e-02f, 1.19292423e-01f, -1.02910828e-02f, 7.33708143e-02f, -9.53599513e-02f, -8.33123829e-03f, 3.04817427e-02f,
  -1.75495610e-01f, 9.30556431e-02f, 4.35131267e-02f, 4.23269682e-02f, -1.33642480e-01f, 7.94819966e-02f, -7.30688125e-02f, 3.18653844e-02f, 8.54372457e-02f, -1.40441164e-01f, -1.11575432e-01f, 1.85234926e-03f,
  -2.30387136e-01f, -1.77348927e-01f, 1.46186113e-01f, 3.67835872e-02f, 1.10005908e-01f, 9.91850570e-02f, -4.80329305e-01f, -4.02930081e-02f, 1.87334895e-01f, 1.33062556e-01f, -1.67110544e-02f, -1.71283469e-01f,
  -1.30524412e-01f, -1.87548041e-01f, 4.19941321e-02f, -6.73956871e-02f, -5.02019264e-02f, -1.53114557e-01f, 2.22725868e-02f, -2.21004972e-04f, -1.35021731e-01f, -1.79238245e-01f, -6.78483844e-02f, -7.79066235e-02f,
  1.02751873e-01f, -4.77436669e-02f, -1.01345316e-01f, -2.72794534e-02f, 4.21964116e-02f, -4.02747571e-01f, -6.17132001e-02f, 5.23627475e-02f, -1.77742506e-04f, -7.93039724e-02f, 6.28783405e-02f, -1.37120441e-01f,
  4.26581427e-02f, -6.58352748e-02f, -5.53154275e-02f, 5.51297963e-02f, -1.67496085e-01f, 1.53875113e-01f, 6.02509035e-03f, 6.31863018e-03f, 8.58407170e-02f, 4.07429636e-02f, -4.72287573e-02f, 4.56606329e-04f,
  1.28385201e-01f, -2.81818472e-02f, -6.80757910e-02f, 5.65521829e-02f, 2.48062834e-01f, -7.99618885e-02f, 1.23356783e-03f, 1.03222698e-01f, -7.06498846e-02f, 2.93273300e-01f, 1.57146603e-01f, 7.58565813e-02f,
  -4.56696860e-02f, -2.59769731e-03f, -9.90076587e-02f, -1.27864778e-01f, 4.44761775e-02f, -6.28931224e-02f, 9.79703292e-02f, 1.29541785e-01f, -2.56438348e-02f, 1.45471722e-01f, -1.89542294e-01f, -6.35994896e-02f,
  2.29344815e-02f, 1.13320790e-01f, 1.05858073e-01f, -1.35007888e-01f, -3.51731956e-01f, 2.19303975e-03f, -2.81670075e-02f, 8.54558032e-03f, 1.17650740e-01f, 1.38448775e-01f, 3.33363600e-02f, 1.58652421e-02f,
  1.04448631e-01f, 1.67079351e-03f, -1.13489911e-01f, -6.02987111e-02f, -3.31428759e-02f, -4.29853424e-03f, -1.98581845e-01f, -2.30170656e-02f, 6.46151975e-02f, 1.21251894e-02f, -2.20514257e-02f, 7.64311804e-03f,
  -2.25717929e-04f, -9.96921659e-02f, 1.44412547e-01f, -1.86640218e-01f, -2.29467377e-02f, -2.27522980e-02f, -4.03845161e-02f, -2.61249617e-02f, -7.26384893e-02f, -1.60721913e-01f, -2.54942812e-02f, 2.18692087e-02f,
  2.79202610e-02f, 2.42127310e-02f, -4.13507521e-02f, -1.37115587e-02f, -2.39382815e-02f, 1.90309018e-01f, 1.99158505e-01f, -9.16153286e-03f, -4.92445156e-02f, 1.04730286e-01f, 9.47957262e-02f, 4.94872704e-02f,
  5.63816279e-02f, 5.33377603e-02f, -2.78206356e-03f, 2.57627796e-02f, -3.28317508e-02f, 6.82416409e-02f, -8.58313218e-02f, -1.37415901e-02f, -1.21271834e-01f, 1.94622036e-02f, -8.99906387e-04f, 1.47377834e-01f,
  -1.18813597e-01f, 5.56202233e-03f, -1.40216229e-02f, 6.02285638e-02f, -1.77357405e-01f, 4.69880998e-02f, -3.33261304e-02f, -1.04132831e-01f, -5.12192361e-02f, -1.20429792e-01f, 1.28280610e-01f, 1.51389334e-02f,
  -1.20601682e-02f, -1.61814034e-01f, 2.42603764e-01f, 9.52982977e-02f, 1.92585737e-01f, -2.39744529e-01f, 3.37807536e-02f, -2.13926639e-02f, -8.09524804e-02f, 2.64314190e-02f, -1.85443787e-03f, -7.80973732e-02f,
  -1.60221726e-01f, 1.88103959e-01f, 8.01051618e-04f, 3.51523757e-02f, -5.26062772e-02f, -1.35432854e-01f, -1.99557133e-02f, 1.03082702e-01f, -6.29916117e-02f, -1.28455922e-01f, -4.74965386e-02f, 1.17472626e-01f,
  1.91115931e-01f, -3.81949097e-02f, -3.45056318e-02f, 1.21044241e-01f, 7.18368078e-03f, 2.73182802e-02f, 3.70853879e-02f, 3.32574435e-02f, -7.63815939e-02f, -7.53592551e-02f, 6.61597475e-02f, -2.64312942e-02f,
  8.14978331e-02f, -1.30358696e-01f, -5.87821752e-02f, 1.26462325e-01f, -5.17240986e-02f, -5.42666838e-02f, -6.26367331e-02f, 7.13075846e-02f, -4.56735119e-02f, -6.82299510e-02f, -1.14625558e-01f, 2.91626900e-02f,
  -8.06559920e-02f, 8.88112187e-03f, -3.49508375e-02f, 1.77805126e-02f, -4.77617085e-02f, -1.12092942e-02f, -1.11240804e-01f, -1.02503583e-01f, -3.24568823e-02f, -5.77212572e-02f, 1.26671687e-01f, -6.57529086e-02f,
  7.54873008e-02f, 3.67842615e-03f, 8.87823105e-02f, 1.22572020e-01f, -9.19860601e-03f, 3.67207080e-02f, -1.28899157e-01f, 3.64305824e-02f, 1.98781222e-01f, -5.65271638e-02f, 4.98702973e-02f, 7.05011636e-02f,
  8.94213766e-02f, -1.21318400e-01f, -1.00792266e-01f, -1.01982571e-01f, -8.37585926e-02f, 6.73466846e-02f, -2.80269925e-02f, -5.64001426e-02f, 1.11127824e-01f, 1.28827661e-01f, -7.88437724e-02f, 1.49452880e-01f,
  4.98485528e-02f, 2.33195294e-02f, 6.23666542e-03f, -4.24496382e-02f, 1.31827861e-01f, -2.41892003e-02f, 3.67216974e-01f, -4.23714854e-02f, 1.05406173e-01f, -1.62505031e-01f, 2.56241590e-01f, 5.85368685e-02f,
  7.43491203e-02f, 1.46393523e-01f, -4.28286344e-02f, 7.05142543e-02f, 4.89648730e-02f, -3.89112458e-02f, -1.68117695e-02f, 1.85765568e-02f, -1.49538115e-01f, -1.01428337e-01f, -3.10381800e-01f, -6.99529722e-02f,
  -2.43127607e-02f, 1.52206421e-01f, -6.97490573e-02f, -1.36196064e-02f, 7.06733540e-02f, 1.24367960e-01f, 7.77223706e-03f, 1.24966167e-01f, -1.41652569e-01f, 8.12835842e-02f, -1.14782332e-02f, -2.91821193e-02f,
  1.86645821e-01f, -6.28641173e-02f, 3.12450498e-01f, -1.62388049e-02f, -3.55713931e-03f, -1.15062743e-01f, 7.93460831e-02f, 7.67755806e-02f, 3.99015640e-04f, 2.88216799e-01f, 1.94510624e-01f, -5.30361868e-02f,
  4.70807254e-02f, 5.12428619e-02f, 3.76841463e-02f, -8.91825110e-02f, 3.68400514e-02f, -2.08517797e-02f, -3.43145244e-02f, -7.25953504e-02f, -6.50808439e-02f, -5.15498668e-02f, 2.79853884e-02f, 1.11540337e-03f,
  -1.04031432e-03f, -5.04798107e-02f, 8.03777054e-02f, -8.73634563e-05f, 1.20870717e-01f, 3.39526571e-02f, 1.19081466e-02f, 7.74299651e-02f, 1.30361080e-01f, 1.91022292e-01f, -5.46986423e-03f, 4.30845283e-02f,
  -1.35224089e-01f, 9.69480798e-02f, 6.24511428e-02f, -4.66451282e-03f, 7.97240064e-02f, -6.93209767e-02f, 7.74631798e-02f, 3.73641923e-02f, 4.13271263e-02f, -6.12108186e-02f, 2.25737318e-03f, 9.04920101e-02f,
  3.47611308e-02f, 4.35631443e-03f, 3.83244939e-02f, -7.91793689e-02f, 1.54232934e-01f, -5.47588279e-05f, -1.77180812e-01f, 1.35250345e-01f, 5.55529632e-03f, 1.48036152e-01f, -7.58484527e-02f, 5.87010495e-02f,
  -8.14941376e-02f, 2.86418423e-02f, 9.98120904e-02f, 8.39877874e-03f, 1.54078782e-01f, 1.60778850e-01f, 8.68636742e-02f, -2.13626385e-01f, -5.34480549e-02f, 7.00195059e-02f, -1.61129549e-01f, 1.07184693e-01f,
  8.53969082e-02f, 4.81489226e-02f, 1.98358833e-03f, -3.34698968e-02f, -1.34163767e-01f, -1.27277344e-01f, -2.86291465e-02f, 7.90081322e-02f, 7.67700896e-02f, -1.80475926e-03f, 1.00900471e-01f, -3.98697853e-02f,
  5.66030145e-02f, 7.02211931e-02f, 7.77425524e-03f, -1.99609529e-02f, -5.16925119e-02f, -1.45477176e-01f, -1.59804579e-02f, -1.39523491e-01f, -1.18015401e-01f, -5.59770241e-02f, -1.91349685e-02f, 1.13623962e-01f,
  -2.14879680e-02f, 5.35552688e-02f, 1.40776616e-02f, 1.96505859e-02f, -6.14050478e-02f, 3.41241062e-02f, 8.25269148e-03f, 1.15356289e-01f, 3.75196687e-05f, -1.20111272e-01f, -1.68597568e-02f, -9.71451476e-02f,
  -7.01436028e-02f, -7.06073735e-03f, 2.94286106e-02f, -3.43287028e-02f, -5.64452484e-02f, 2.64602859e-04f, -1.28339797e-01f, 7.80566335e-02f, -3.43432324e-03f, -3.80682349e-02f, 3.74512821e-02f, 6.88229427e-02f,
  9.41133350e-02f, -1.03550285e-01f, 6.40173331e-02f, -3.79708149e-02f, -4.76183183e-02f, 1.62693914e-02f, 6.70406446e-02f, -9.27445069e-02f, -5.86125851e-02f, -7.14320177e-03f, 1.16422400e-02f, -4.02373774e-03f,
  -3.61558199e-02f, 3.07882507e-03f, -2.04077169e-01f, -1.04175434e-01f, 3.33191939e-02f, -1.49786286e-02f, -2.81626862e-02f, 3.76079138e-03f, -1.63506627e-01f, -1.09642278e-04f, 1.00741006e-01f, -5.17932922e-02f,
  -4.42592323e-01f, 3.54596763e-03f, -6.30119815e-02f, 2.21536413e-01f, -1.32323176e-01f, -2.73035556e-01f, -2.86765516e-01f, 8.88387635e-02f, -9.09403637e-02f, -2.37909451e-01f, -3.21344227e-01f, -6.44066408e-02f,
  6.41821623e-01f, 6.04845405e-01f, 8.59072432e-02f, -4.58995610e-01f, 3.50233465e-02f, 2.59333160e-02f, 2.14246958e-01f, -2.01626852e-01f, 1.23127654e-01f, -1.00541018e-01f, 3.76401097e-01f, -2.48552531e-01f,
  2.07546845e-01f, 9.73992422e-02f, 1.79774299e-01f, 7.91098922e-02f, -7.99485222e-02f, -1.03624083e-01f, -1.02007151e-01f, 4.67883348e-02f, 4.23963606e-01f, -1.26616955e-01f, 4.19308431e-02f, -2.63479352e-01f,
  1.15987822e-01f, 1.58849254e-01f, 2.61143297e-01f, -5.05237840e-02f, 9.12754312e-02f, 3.07110041e-01f, 2.61449963e-01f, 8.36781710e-02f, -5.94309866e-01f, -5.88558614e-01f, -1.34657502e-01f, 4.27567303e-01f,
  -2.83893738e-02f, -1.37863964e-01f, -1.51358679e-01f, 1.19786114e-01f, -2.87309766e-01f, 1.51296988e-01f, -5.71047306e-01f, 4.18107927e-01f, -3.96462306e-02f, -1.07692130e-01f, -2.05131143e-01f, -1.35001466e-01f,
  -2.14657426e-01f, -9.92640436e-01f, -3.08064938e-01f, 1.66711971e-01f, 1.00370891e-01f, 1.07888415e-01f, -3.52682918e-02f, -8.89904127e-02f, -4.37319458e-01f, -3.70360091e-02f, 1.69007763e-01f, 3.79813239e-02f,
  -5.68883158e-02f, 8.02939087e-02f, 2.31360763e-01f, -1.14011124e-01f, -1.48769662e-01f, 5.83739541e-02f, -3.86971282e-03f, 1.39936000e-01f, -1.02744177e-01f, -2.58107960e-01f, -2.66703844e-01f, 2.48968918e-02f,
  -5.87701164e-02f, 2.09920108e-01f, -3.82451564e-02f, 9.94508862e-02f, 1.26919612e-01f, -1.63466349e-01f, -2.74385773e-02f, -2.44150996e-01f, -6.76666051e-02f, -7.48265022e-03f, 5.82748316e-02f, -3.30643542e-02f,
  -1.41323537e-01f, 3.08997817e-02f, -6.12129383e-02f, 5.02576083e-02f, 7.17489142e-03f, 8.38929117e-02f, -4.73642861e-03f, -1.79592460e-01f, 1.48126677e-01f, 4.27974537e-02f, -4.79083657e-02f, -4.35480401e-02f,
  -2.13498846e-02f, -1.65888313e-02f, -9.03669558e-03f, 3.26085277e-02f, 1.71492994e-02f, 1.65287629e-01f, -1.65784910e-01f, 2.12990176e-02f, -8.82669911e-02f, -1.64820030e-01f, 2.19319332e-02f, 1.23262621e-01f,
  -5.04393950e-02f, 1.64191261e-01f, -7.89794773e-02f, -2.63796985e-01f, 1.55567015e-02f, -2.02659190e-01f, -2.32703596e-01f, -1.43753022e-01f, -1.25900805e-01f, 2.62620330e-01f, -1.24206230e-01f, -4.90137702e-03f,
  -1.32247970e-01f, -1.02242688e-02f, -1.05024651e-01f, -1.39781013e-01f, -7.43507817e-02f, 5.90073876e-02f, 1.01796284e-01f, 1.26152530e-01f, -7.11232126e-02f, -2.22578317e-01f, -4.68189418e-02f, -2.12857537e-02f,
  6.64083064e-02f, 6.20696740e-03f, -1.52467135e-02f, 6.65299371e-02f, 2.48641279e-02f, -2.98594922e-01f, 4.41092327e-02f, 4.44403738e-02f, -1.87817588e-01f, 3.91934693e-01f, 1.12797119e-01f, -4.25992794e-02f,
  -8.08829069e-02f, 6.94033802e-02f, -6.03789911e-02f, -1.24234438e-03f, -3.63315782e-03f, 1.62203893e-01f, -8.98429677e-02f, -9.61798355e-02f, -6.34557083e-02f, -2.13984679e-02f, -5.66699281e-02f, -4.78753708e-02f,
  1.25051618e-01f, 1.19187891e-01f, 1.12062949e-03f, 5.04166074e-02f, -3.24803516e-02f, 1.79225001e-02f, -8.95540938e-02f, -1.53468922e-01f, 4.26242081e-03f, 1.96232144e-02f, -1.09604023e-01f, 6.58101514e-02f,
  -2.28853077e-01f, 1.48694575e-01f, 3.56602520e-02f, -1.86739955e-02f, -5.39354682e-02f, 1.21767521e-02f, 4.79293503e-02f, -7.93837532e-02f, 6.27828538e-02f, -7.13669509e-02f, -6.64502829e-02f, 2.71551614e-03f,
  -1.12234443e-01f, -3.34983319e-02f, 1.38225928e-01f, -5.36590442e-02f, 2.70766001e-02f, -5.26061654e-02f, 3.89616117e-02f, 1.72457963e-01f, 4.09897603e-02f, 4.85758781e-02f, 7.16918185e-02f, -5.80990128e-02f,
  4.35710102e-02f, -1.11461068e-02f, -7.29794987e-03f, -3.35725248e-02f, -1.08139038e-01f, -6.17500357e-02f, -4.72185910e-02f, 2.86981501e-02f, 6.85737580e-02f, 1.32640392e-01f, -3.71546559e-02f, -8.91522169e-02f,
  -1.58918593e-02f, 9.54293758e-02f, -1.83340758e-01f, -1.13289692e-02f, 6.23045582e-03f, 9.33160782e-02f, 1.67987391e-01f, -1.60951823e-01f, -6.45628497e-02f, 4.94827218e-02f, 1.16882592e-01f, -2.25301951e-01f,
  -6.64747879e-02f, 1.42005533e-01f, -7.79266730e-02f, 3.12752724e-02f, -2.19819754e-01f, -2.94665303e-02f, 2.39119932e-01f, -2.03782514e-01f, 1.12135306e-01f, 1.52176932e-01f, 2.11483225e-01f, 4.17510644e-02f,
  -1.14751227e-01f, 1.10035032e-01f, -1.64654434e-01f, -3.81381325e-02f, 4.87657972e-02f, -6.50161803e-02f, 1.40614823e-01f, -1.03365958e-01f, -2.96193343e-02f, -1.03167281e-01f, -4.26299274e-02f, -2.18449682e-01f,
  -1.01436958e-01f, -2.54444107e-02f, 3.42234299e-02f, -6.42507970e-02f, -1.02119207e-01f, -7.88706914e-02f, -9.24181789e-02f, 2.03506425e-02f, 1.20318187e-02f, 5.81628941e-02f, 8.03724378e-02f, -8.95065442e-03f,
  -9.28217021e-04f, 6.94452003e-02f, -5.73787503e-02f, -1.19080842e-01f, 2.44835168e-02f, -5.94164208e-02f, -3.00090443e-02f, -1.36426881e-01f, -1.13492489e-01f, -1.37711331e-01f, -9.41734388e-02f, -6.39435500e-02f,
  -9.10489410e-02f, -7.92448223e-02f, -4.70298231e-02f, -1.28022134e-01f, -1.05776265e-01f, -2.26435694e-03f, -9.16268304e-02f, -2.64626801e-01f, -2.30372190e-01f, -4.23841849e-02f, -6.68130582e-04f, -5.38058169e-02f,
  1.49328560e-01f, 5.01188003e-02f, 2.14969683e-02f, -2.83550993e-02f, 1.59303054e-01f, 9.97495577e-02f, -3.49404588e-02f, 5.58062494e-02f, 7.23932907e-02f, 8.85762498e-02f, 1.93745010e-02f, -1.08651839e-01f,
  -1.16456434e-01f, 8.40156805e-03f, 1.11882567e-01f, 7.80568421e-02f, 3.65792513e-02f, 1.52527332e-01f, -7.57710636e-02f, 9.60383471e-03f, -2.44676303e-02f, -4.26421240e-02f, 1.96241159e-02f, 8.01282749e-03f,
  -7.54411221e-02f, 1.42664656e-01f, 4.13464829e-02f, -7.80517459e-02f, -2.20313426e-02f, -1.14835478e-01f, 1.11589164e-01f, 1.04874335e-02f, 8.12417120e-02f, 7.10804611e-02f, 3.95315401e-02f, 1.81350797e-01f,
  -5.75656742e-02f, 4.11229916e-02f, 6.62381649e-02f, -8.09097104e-03f, -2.33391877e-02f, 1.85777515e-01f, -8.03889260e-02f, 9.86329094e-02f, -1.94592178e-02f, -6.68166876e-02f, 3.26906815e-02f, 7.33945146e-02f,
  2.18155026e-01f, -9.97818559e-02f, 3.48240137e-02f, 1.16227493e-01f, 5.53611517e-02f, -3.83106731e-02f, -1.02033913e-01f, -5.05502410e-02f, 4.83536758e-02f, -9.83113796e-02f, 3.30805890e-02f, -8.83221775e-02f,
  -2.47549210e-02f, -2.16119401e-02f, -1.85093265e-02f, -4.38987464e-02f, -4.67674620e-02f, 4.30050716e-02f, -4.34817597e-02f, -1.96522065e-02f, -2.38584075e-02f, -1.04118381e-02f, -3.77123803e-03f, -7.46385083e-02f,
  -1.22453488e-01f, -7.87194148e-02f, 1.23326428e-01f, -1.82034075e-02f, -2.43247841e-02f, -5.10169640e-02f, 1.18379118e-02f, -1.25278607e-02f, -1.12925790e-01f, -3.05351913e-02f, 1.09146191e-02f, -4.15553078e-02f,
  7.68672489e-03f, -3.12997326e-02f, 1.33688241e-01f, 7.39980862e-02f, -5.03272116e-02f, 1.55939341e-01f, 9.06678364e-02f, 4.93837483e-02f, -1.77779317e-01f, 3.97087261e-02f, -3.95803116e-02f, -1.32210031e-02f,
  4.50384244e-02f, -4.16585617e-02f, 6.28898963e-02f, 5.16527845e-03f, 7.58471563e-02f, -1.15881480e-01f, -4.54643816e-02f, -1.22893558e-04f, -9.60784256e-02f, 4.75883968e-02f, 1.00823551e-01f, -7.01002255e-02f,
  -5.08185253e-02f, 5.36436439e-02f, -1.46397844e-01f, 4.43285657e-03f, 7.28580132e-02f, -3.62424627e-02f, -1.55945852e-01f, -1.32203260e-02f, -5.50931245e-02f, -7.33149350e-02f, -9.43712220e-02f, -9.10997093e-02f,
  -2.59569716e-02f, 1.79760195e-02f, -3.49998921e-02f, -3.86048295e-02f, 4.89340201e-02f, 5.55124506e-02f, 8.35125446e-02f, -2.62700934e-02f, 4.13579494e-02f, -3.20642814e-02f, -1.95402056e-01f, 2.96628419e-02f,
  4.87019829e-02f, -4.78733703e-02f, -7.23596215e-02f, 6.47944063e-02f, -4.77970690e-02f, 1.89518735e-01f, 7.69546162e-03f, -6.92466795e-02f, -1.71161871e-02f, 8.02176967e-02f, -6.51168376e-02f, 9.26554725e-02f,
  -7.04205735e-03f, 5.67652211e-02f, -1.39593827e-02f, 8.20059255e-02f, 1.55288532e-01f, -6.95670722e-03f, 5.52252941e-02f, -3.27476263e-02f, -1.25018889e-02f, 1.57216471e-02f, 8.09150115e-02f, 4.60317247e-02f,
  1.36122763e-01f, 1.04522042e-01f, -1.80378333e-02f, -5.49858585e-02f, 1.21352851e-01f, 1.52518317e-01f, 4.99347821e-02f, -2.34374642e-01f, -7.43973330e-02f, -1.52517799e-02f, 4.80771549e-02f, -5.83461523e-02f,
  -1.40604451e-02f, 1.31533116e-01f, -1.33115813e-01f, -5.30311987e-02f, 7.52114831e-03f, 7.05159456e-03f, 3.90289538e-02f, 4.73199114e-02f, 1.30055487e-01f, -1.54114932e-01f, -2.09078081e-02f, -4.32046503e-02f,
  8.90342742e-02f, 1.89279660e-03f, -1.30979583e-01f, 8.69380534e-02f, -9.80092958e-03f, 8.40625614e-02f, 2.87605077e-01f, -1.49047092e-01f, -1.42478421e-01f, -2.56492049e-01f, -2.46913046e-01f, 1.03473380e-01f,
  -1.18645690e-01f, -1.45903617e-01f, -1.82810977e-01f, -7.39087909e-02f, 4.87696350e-01f, 4.83948998e-02f, 1.06676631e-01f, -8.17729533e-02f, -3.86954546e-02f, 5.35233468e-02f, 2.01845895e-02f, -2.18032330e-01f,
  6.08986393e-02f, 1.23580396e-01f, 1.33855000e-01f, 1.21560708e-01f, -6.87847584e-02f, -2.39332333e-01f, -1.65028812e-03f, 9.38377716e-03f, 7.45588243e-02f, 2.04247553e-02f, -2.21091807e-02f, -5.57969324e-04f,
  3.66226226e-01f, -2.55299568e-01f, -2.54618973e-02f, -9.47960764e-02f, 5.64471865e-03f, -1.10548794e-01f, 3.97027843e-02f, 2.31183926e-03f, 1.79794803e-01f, -9.34846848e-02f, -7.29182810e-02f, 4.20805812e-02f,
  3.44617553e-02f, 4.64988407e-03f, -1.38184512e-02f, -1.43472955e-03f, -7.93952346e-02f, -4.93960418e-02f, 1.47970095e-01f, -4.20952104e-02f, -3.92352492e-02f, 2.87339929e-02f, 9.23691224e-03f, 1.35646453e-02f,
  -2.81072184e-02f, 3.58294025e-02f, -4.35217135e-02f, -8.21537301e-02f, -1.97094046e-02f, 1.44198269e-03f, 4.55050580e-02f, -3.37952785e-02f, 6.83809221e-02f, 1.83037426e-02f, 4.77375351e-02f, -1.47909775e-01f,
  -1.87137783e-01f, 2.63299309e-02f, 2.04292946e-02f, 5.18977940e-02f, 2.05393750e-02f, 5.80124706e-02f, 1.68243557e-01f, -3.80793251e-02f, 4.03082483e-02f, -8.46190825e-02f, 7.68816918e-02f, 8.51005130e-03f,
  -1.81249499e-01f, -7.30724633e-02f, -1.27833588e-02f, -2.74952576e-02f, -4.72448505e-02f, 9.42961648e-02f, -3.16743553e-01f, -6.79049939e-02f, 1.20239854e-01f, 8.20149109e-02f, 1.05345640e-02f, -1.11312822e-01f,
  -4.62678596e-02f, -1.24044910e-01f, 6.10986501e-02f, -1.52078150e-02f, 3.87825109e-02f, -1.06198624e-01f, 3.09441313e-02f, 2.79897936e-02f, -1.90462455e-01f, -3.93636562e-02f, 4.30594347e-02f, -2.77733281e-02f,
  -1.22902989e-02f, -5.24172448e-02f, -2.63459366e-02f, -2.43227780e-02f, 8.16940442e-02f, -1.84321254e-01f, -2.11309344e-02f, 3.00663672e-02f, -6.89676218e-03f, -3.25108692e-02f, 3.84967104e-02f, -1.29697561e-01f,
  -1.36033714e-01f, 3.83664444e-02f, -8.83015394e-02f, -1.49298869e-02f, -2.24197563e-02f, 6.13070764e-02f, -1.34183377e-01f, -8.93230513e-02f, 7.81090260e-02f, 7.47862458e-02f, 6.92329789e-03f, -2.15524882e-02f,
  -1.09887712e-01f, -5.77234104e-02f, 2.41926834e-02f, 1.04062811e-01f, 5.88295050e-02f, -1.26878154e-02f, -3.12716328e-02f, -8.24306533e-02f, 3.25879492e-02f, 1.38021886e-01f, 2.36515537e-01f, 9.71247777e-02f,
  -6.58385456e-02f, 5.31485304e-02f, -1.82013959e-02f, 2.87466198e-02f, -4.89224540e-03f, 3.02105229e-02f, -1.38631001e-01f, 1.32879496e-01f, -9.96277183e-02f, -7.65893087e-02f, -7.63725638e-02f, 1.22525897e-02f,
  -4.50222827e-02f, 2.22840935e-01f, 1.54589981e-01f, -5.24365120e-02f, -2.41842464e-01f, 1.13878988e-01f, 6.05105013e-02f, 5.55881448e-02f, -1.14470543e-02f, 9.10976082e-02f, 1.16126180e-01f, -2.12496389e-02f,
  2.54207291e-02f, -5.13806343e-02f, -9.63992774e-02f, -1.40521556e-01f, -8.92364979e-03f, -1.46252383e-02f, 2.75893845e-02f, -4.03501019e-02f, -1.41686663e-01f, 1.56701952e-02f, -4.57652733e-02f, -9.01302472e-02f,
  -2.63390411e-02f, 9.35101602e-03f, -1.20698415e-01f, -2.53482815e-03f, -6.06355444e-02f, -7.25727603e-02f, -1.26048788e-01f, -2.78172437e-02f, -3.79147008e-02f, 5.36063723e-02f, -2.61278357e-02f, -3.77739109e-02f,
  1.67754982e-02f, 3.92153338e-02f, -1.46109592e-02f, -2.57199761e-02f, -2.15720147e-01f, 2.85775047e-02f, 4.70071323e-02f, -3.95231135e-02f, -1.46527961e-01f, -1.09245218e-01f, -6.43882155e-02f, -1.14683501e-01f,
  3.21849696e-02f, 7.82899335e-02f, 1.88243762e-02f, 2.98963562e-02f, -1.48207337e-01f, 6.24384135e-02f, -4.75235060e-02f, -1.84998825e-01f, 2.34233886e-02f, 2.22927867e-03f, -8.69128853e-02f, 4.76679243e-02f,
  1.08460717e-01f, 1.59446914e-02f, -1.64365359e-02f, 9.15683210e-02f, -2.50060141e-01f, 1.70939818e-01f, -1.19432554e-01f, -7.82922469e-03f, -3.32642272e-02f, -3.60633694e-02f, 1.40028971e-03f, -9.64487568e-02f,
  -6.18892275e-02f, -4.88821939e-02f, -2.37646252e-02f, 1.51031062e-01f, -5.52861299e-03f, 1.20292217e-01f, 1.44261390e-01f, -1.97958231e-01f, 2.66044755e-02f, -9.11079943e-02f, 2.38850228e-02f, 7.27721825e-02f,
  -5.63214757e-02f, -6.13774583e-02f, 7.62451068e-02f, 9.92219895e-02f, 3.63636427e-02f, -3.16141210e-02f, -9.19455215e-02f, -1.59468576e-01f, 8.60561281e-02f, -1.99684147e-02f, 5.59144579e-02f, -3.93746654e-04f,
  1.48690641e-01f, -2.66915616e-02f, 2.51494726e-04f, 6.56291172e-02f, -9.08574685e-02f, -4.07228060e-03f, 1.00111254e-01f, 4.87097241e-02f, -4.87919152e-02f, -7.80549720e-02f, 2.26015642e-01f, -1.01699848e-02f,
  1.06348321e-01f, -4.25519571e-02f, 2.03620344e-02f, -4.84278500e-02f, -4.18340787e-02f, -7.92446733e-02f, -1.21322282e-01f, -1.24776289e-01f, 2.18814164e-02f, -7.30429664e-02f, -1.15258157e-01f, 1.14293143e-01f,
  3.69199663e-02f, -5.61578944e-02f, 1.37210295e-01f, -3.62694487e-02f, 3.86570394e-03f, -1.05478823e-01f, -5.46307862e-02f, 6.92766756e-02f, 8.10943544e-03f, 2.77560502e-02f, -4.01529595e-02f, -9.25467834e-02f,
  -6.25469089e-02f, -9.71686095e-02f, -1.75601318e-02f, -1.03261359e-01f, 3.66725922e-02f, 7.94464201e-02f, 9.69620943e-02f, -9.55317765e-02f, 6.65681437e-02f, 1.59057323e-02f, -3.74993943e-02f, 1.11698434e-01f,
  1.73124358e-01f, 1.36392534e-01f, -7.39710033e-02f, -4.10314836e-02f, 4.70029041e-02f, 8.05389062e-02f, -2.79280599e-02f, 8.40453804e-03f, 1.12227283e-01f, 4.80973721e-02f, 1.05196070e-02f, -1.61211804e-01f,
  1.60799161e-01f, -1.20120205e-01f, 1.57316849e-01f, -7.35292658e-02f, -1.68299563e-02f, -1.90086812e-01f, 5.34451827e-02f, -7.88963959e-02f, 1.30462527e-01f, -7.84679949e-02f, -3.40995903e-04f, 1.49181589e-01f,
  -3.75220291e-02f, 1.52763978e-01f, 1.09156460e-01f, 1.62334442e-02f, -5.67951426e-03f, -7.19498470e-02f, 8.89660046e-03f, 1.71462834e-01f, 9.96925831e-02f, 1.89514961e-02f, -6.77241907e-02f, 5.68549149e-02f,
  -6.32643476e-02f, 8.48633721e-02f, 1.75175652e-01f, -1.39406230e-03f, 7.89388120e-02f, 1.06063642e-01f, 4.46290486e-02f, 7.62366205e-02f, 8.73671472e-03f, 4.68604639e-02f, 1.65493324e-01f, 5.53713813e-02f,
  1.88100561e-02f, -1.67932943e-01f, 5.82326949e-02f, 2.31825635e-02f, -4.74705100e-02f, -3.67811434e-02f, 4.14548032e-02f, 1.46325797e-01f, 1.06663361e-01f, -8.33297297e-02f, 9.33834072e-03f, 4.32536714e-02f,
  9.09042731e-02f, 1.61155477e-01f, 7.06559122e-02f, -2.82940734e-02f, -6.70607761e-03f, -1.48453200e-02f, 1.43401623e-01f, -4.16555889e-02f, 1.43263042e-01f, 6.66268691e-02f, -5.85804805e-02f, 1.47644699e-01f,
  1.02008492e-01f, 1.17299162e-01f, -2.22423319e-02f, 1.25456452e-01f, 2.75966413e-02f, -1.82067845e-02f, 3.23794186e-02f, -9.66797099e-02f, -2.28276029e-02f, -1.85101535e-02f, -5.52792922e-02f, 4.88737337e-02f,
  -3.00003253e-02f, 1.01258330e-01f, -5.67142554e-02f, 4.90134060e-02f, 1.94242075e-02f, -5.11434600e-02f, 7.68139435e-04f, 5.87970903e-03f, -9.22212303e-02f, -2.22049486e-02f, -1.73637033e-01f, 1.55861229e-02f,
  -1.64617468e-02f, 2.40169335e-02f, 1.11353621e-01f, -7.72443116e-02f, 6.03295816e-03f, 1.36962170e-02f, 4.82624173e-02f, 2.23785311e-01f, -8.35184976e-02f, -7.53915217e-03f, -9.84593630e-02f, 6.49737641e-02f,
  -4.35924642e-02f, 2.86183525e-02f, 8.82101133e-02f, -1.10503964e-01f, 1.57675371e-01f, 5.18862046e-02f, -3.86371166e-02f, 1.05301868e-02f, 1.08645879e-01f, 1.20165967e-03f, -3.26949842e-02f, -6.97520226e-02f,
  -3.16871069e-02f, -4.93020155e-02f, 1.20040411e-02f, 1.20754279e-01f, 4.08275351e-02f, -3.32367681e-02f, -7.74913058e-02f, 3.32571790e-02f, -4.79749516e-02f, 3.32341045e-02f, 6.87528327e-02f, -5.04482910e-03f,
  -8.18906650e-02f, -7.26133212e-02f, -2.12476458e-02f, 5.90852834e-03f, -5.32972068e-02f, -9.83376577e-02f, -4.39587794e-02f, 4.36873212e-02f, 5.07358238e-02f, -3.15520056e-02f, -6.65984601e-02f, 3.70854326e-02f,
  -5.56423143e-02f, 1.35638313e-02f, 5.79317361e-02f, -1.40010878e-01f, -4.25353795e-02f, -1.93880975e-01f, -7.97793791e-02f, 5.20300530e-02f, 8.87289122e-02f, -9.00055990e-02f, -8.75548348e-02f, 4.35613319e-02f,
  -7.93049410e-02f, 8.76357928e-02f, 9.19476226e-02f, 1.17858108e-02f, -8.93486440e-02f, 5.49222762e-03f, -5.10407798e-02f, -4.23964448e-02f, 8.06011632e-02f, 8.38502571e-02f, -4.27247249e-02f, -1.05162904e-01f,
  -8.34431723e-02f, -2.19323710e-02f, 6.00559078e-02f, 8.36772285e-03f, -6.54241294e-02f, -5.30246794e-02f, -9.59415287e-02f, -1.05237132e-02f, 3.43170315e-02f, 3.47963050e-02f, -3.34451124e-02f, 5.05291484e-02f,
  5.32606021e-02f, -6.04749471e-02f, -4.94542234e-02f, -3.60496975e-02f, -4.73905876e-02f, -2.83851832e-01f, 3.05124205e-02f, -8.59868899e-02f, 3.37073393e-02f, -8.27777684e-02f, -1.06521677e-02f, 2.47737207e-02f,
  -7.80806467e-02f, -2.66238656e-02f, -4.65171672e-02f, 1.01250753e-01f, 3.45239341e-02f, 4.60453937e-03f, -1.07651912e-01f, 6.12904690e-02f, -1.64997380e-03f, -1.25780135e-01f, 8.64620656e-02f, -3.82047817e-02f,
  2.27831647e-01f, 2.74189502e-01f, -1.28797278e-01f, -6.97591230e-02f, 1.93794537e-03f, -2.87138969e-02f, -4.08876128e-03f, 1.45236120e-01f, 1.70552075e-01f, -6.75772801e-02f, 1.87526718e-01f, -1.41223833e-01f,
  -6.04300275e-02f, 2.22968943e-02f, -3.71771343e-02f, -7.94160087e-03f, 3.74346003e-02f, 3.19841690e-02f, -1.11880824e-02f, 1.20712456e-03f, 1.38172328e-01f, 1.11804791e-01f, 5.97411059e-02f, -1.00739866e-01f,
  -6.67115208e-03f, 1.74301550e-01f, 1.35723189e-01f, -1.05595849e-01f, 1.35643527e-01f, -2.39361916e-02f, -2.69928630e-02f, -4.52699214e-02f, -7.35875666e-02f, -2.39612117e-01f, 1.60843313e-01f, 2.78959364e-01f,
  -1.71498628e-03f, 4.66991290e-02f, -1.61432609e-01f, -2.50054095e-02f, 2.19497569e-02f, -5.11506647e-02f, 3.40293646e-02f, -2.31519956e-02f, -1.05813175e-01f, 9.28842556e-03f, 1.07459733e-02f, -4.23148088e-02f,
  -1.26984432e-01f, -9.76612449e-01f, -3.94658893e-01f, -2.89507229e-02f, 8.16775113e-02f, 1.04707241e-01f, -4.52294759e-03f, -2.05205113e-01f, -2.92986453e-01f, 3.27651831e-03f, -1.30542163e-02f, -6.50821403e-02f,
  -1.21430762e-01f, -1.17191948e-01f, 7.00700982e-03f, -1.39270589e-01f, -3.36617231e-02f, 8.84578750e-03f, 6.12614602e-02f, -8.52102637e-02f, 2.55283806e-02f, -1.82968989e-01f, -1.73692286e-01f, 9.36090499e-02f,
  -3.78786884e-02f, 1.86372563e-01f, -1.13397576e-02f, -9.38267857e-02f, 1.87933415e-01f, -2.69678503e-01f, -1.71701629e-02f, -9.70542207e-02f, 4.81463298e-02f, 2.78349966e-01f, 1.07662715e-01f, -5.35876565e-02f,
  -5.96658662e-02f, 2.20130719e-02f, -1.82170734e-01f, -2.00375505e-02f, 1.50931394e-03f, -5.74624985e-02f, -2.83848159e-02f, -2.96296570e-02f, 9.44112837e-02f, -1.40974656e-01f, -2.49067903e-01f, 1.26927137e-01f,
  -5.31669473e-03f, 2.84393020e-02f, -8.47707540e-02f, -1.27184510e-01f, 2.17481986e-01f, 1.34455338e-01f, 3.48342769e-02f, -1.50356255e-02f, 5.34502864e-02f, -1.53725013e-01f, 2.61598304e-02f, 4.03555259e-02f,
  -9.67674032e-02f, 7.02664927e-02f, -3.16116624e-02f, 1.57326877e-01f, -5.22224195e-02f, -2.39538681e-02f, -7.75962472e-02f, -4.73845601e-02f, 1.07737117e-01f, 2.31969178e-01f, -1.51830003e-01f, 1.58843905e-01f,
  -2.60917008e-01f, 1.20857544e-01f, -2.47191601e-02f, -2.19197050e-01f, -4.26369496e-02f, -1.25982806e-01f, 8.58082548e-02f, 1.37884453e-01f, -6.76454976e-03f, 1.69571280e-01f, 5.66744618e-02f, 3.27764377e-02f,
  -4.44413908e-02f, 8.22864175e-02f, -5.90516925e-02f, -8.31876919e-02f, -1.54849172e-01f, -4.91799057e-01f, 2.06514094e-02f, -9.69455838e-02f, -2.97929943e-01f, 2.00995564e-01f, 2.06319436e-01f, 3.33433859e-02f,
  -1.18880481e-01f, 2.47254502e-02f, 2.78188335e-03f, -1.90174702e-04f, -4.93431762e-02f, -4.22435254e-02f, 1.91694603e-03f, 4.91073206e-02f, -1.74044952e-01f, 3.74301448e-02f, -1.73606221e-02f, -6.02474175e-02f,
  -7.27732107e-02f, 1.39713719e-01f, -2.91168541e-02f, 1.04072869e-01f, -3.71781178e-02f, -4.40357365e-02f, -1.03205107e-02f, 1.76237285e-01f, -1.47280499e-01f, -3.08239553e-02f, -8.18250142e-03f, -1.20004438e-01f,
  -2.74799522e-02f, -1.63828656e-01f, 3.61160599e-02f, 3.68309617e-02f, -6.48826510e-02f, 1.18616581e-01f, 3.55296358e-02f, 4.46071997e-02f, -8.98707286e-02f, 1.36638537e-01f, -2.51436569e-02f, -9.44371969e-02f,
  8.71792361e-02f, -7.83791468e-02f, 3.29929180e-02f, -3.87151726e-02f, -1.24811232e-01f, 1.88776553e-02f, -1.47352859e-01f, 9.19895619e-02f, -8.68473351e-02f, 8.61863643e-02f, -1.15441658e-01f, 7.12484419e-02f,
  1.29212753e-03f, 1.41167819e-01f, 1.60673335e-01f, 7.69030303e-02f, -2.81841550e-02f, 7.52842054e-04f, -1.43384002e-02f, 5.67658804e-03f, 2.12642565e-01f, 1.22800700e-01f, -4.05376069e-02f, -9.29468721e-02f,
  1.78955290e-02f, -2.76426971e-02f, 4.16762829e-02f, -6.75694610e-04f, 1.18543848e-01f, -2.34105185e-01f, 6.21002056e-02f, -1.34499475e-01f, 1.46842614e-01f, 1.72662020e-01f, -3.63810151e-03f, -1.34711370e-01f,
  8.25412422e-02f, 4.96015772e-02f, -1.11572808e-02f, 1.57382280e-01f, -5.21915406e-02f, 7.45636364e-03f, 6.47947565e-02f, -7.65012577e-02f, 3.08490358e-02f, -1.24099641e-03f, -1.40862957e-01f, -5.10792360e-02f,
  -1.37424022e-01f, -8.96491036e-02f, -7.98360556e-02f, 2.94031538e-02f, 1.38835177e-01f, -2.36628428e-02f, -3.91902030e-02f, 1.23964205e-01f, 1.22067854e-01f, -1.86660737e-01f, -7.00119138e-02f, -7.55594820e-02f,
  -8.08702856e-02f, -1.02854231e-02f, -3.05830259e-02f, 7.29557825e-03f, -1.19007733e-02f, -1.33295860e-02f, 4.18922342e-02f, 2.82965843e-02f, -7.08363429e-02f, -9.55435261e-02f, 2.50131171e-02f, 4.35448177e-02f,
  4.95922342e-02f, -4.71117459e-02f, 4.58887890e-02f, -1.15707777e-02f, -1.65507812e-02f, 5.06751090e-02f, 1.02264717e-01f, -3.96685787e-02f, 6.54784441e-02f, -4.56919987e-03f, -5.12690693e-02f, 7.64460638e-02f,
  8.33719224e-02f, 2.23999862e-02f, -8.66990443e-03f, 4.96322755e-03f, -5.85627593e-02f, -1.75238792e-02f, 5.18220551e-02f, -4.96440865e-02f, -1.04482934e-01f, -6.66917861e-02f, 1.16590708e-02f, -4.59901839e-02f,
  -4.21947241e-02f, 1.08212857e-02f, 3.55424061e-02f, 2.26053055e-02f, 3.46063934e-02f, 3.48526910e-02f, 7.30791595e-03f, -4.42614546e-03f, -4.83000837e-03f, 1.07871100e-01f, 1.29995078e-01f, 1.25992279e-02f,
  -1.74713992e-02f, 1.06621929e-03f, 3.26195732e-02f, -3.93362939e-02f, 1.19619239e-02f, -3.91028486e-02f, 1.29384920e-01f, -1.51548367e-02f, -1.41208813e-01f, 2.88671777e-02f, -4.35139351e-02f, -5.89778945e-02f,
  -2.44703945e-02f, -3.29266232e-03f, 1.42275812e-02f, -5.44824637e-03f, -1.99783891e-01f, 8.41745269e-03f, -2.69290432e-02f, 1.10161349e-01f, 1.34754870e-02f, 6.58419505e-02f, 9.39958468e-02f, 2.21401267e-02f,
  1.69765443e-01f, -5.51690161e-02f, 3.16117853e-02f, 1.00818343e-01f, 8.79735127e-02f, 9.39829797e-02f, -7.08334818e-02f, -1.18750185e-01f, 1.86385177e-02f, -4.73366529e-02f, 4.60844226e-02f, -7.98257813e-02f,
  2.57034212e-01f, -4.31788079e-02f, 7.99193233e-03f, -7.52641931e-02f, -1.50297493e-01f, 5.04024960e-02f, 1.04447573e-01f, 1.76066794e-02f, -1.78364679e-01f, 5.93560562e-03f, 1.73058525e-01f, 3.18631940e-02f,
  1.40430946e-02f, -8.25569034e-02f, -1.07993316e-02f, 6.24558888e-02f, -9.64634046e-02f, -6.68706819e-02f, -4.56007682e-02f, 3.09927785e-03f, -1.12851463e-01f, 5.85973524e-02f, 1.81707218e-02f, 3.42932604e-02f,
  -1.60612836e-02f, -6.69736639e-02f, 5.22972196e-02f, -6.67496398e-02f, 1.45291820e-01f, -2.35469900e-02f, 2.71907710e-02f, 1.92933604e-02f, 1.13924533e-01f, 1.02817021e-01f, -1.08728278e-02f, -1.54207954e-02f,
  1.47385985e-01f, 6.70162514e-02f, -7.04151243e-02f, 7.04845116e-02f, -1.96954142e-02f, -7.51217082e-02f, 1.55855745e-01f, 8.01133141e-02f, -1.33419305e-01f, -2.20069401e-02f, -2.07717866e-01f, 4.97433469e-02f,
  -1.16543338e-01f, -1.05655141e-01f, -1.00463942e-01f, 5.78288659e-02f, -7.26711936e-03f, -3.86234708e-02f, -1.19741624e-02f, -4.70530987e-02f, -1.33687751e-02f, -5.01377434e-02f, -6.12363555e-02f, 7.72758052e-02f,
  -8.51226747e-02f, 1.04661919e-02f, 1.28411024e-03f, 3.97644378e-02f, 1.02763092e-02f, 6.70261830e-02f, -4.79614958e-02f, 7.47405663e-02f, -9.65776369e-02f, 4.66697440e-02f, 3.24351490e-02f, 2.71383319e-02f,
  -3.09962165e-02f, 1.16740942e-01f, -1.05514742e-01f, -5.98904043e-02f, 3.91031951e-02f, -2.51156744e-02f, -1.18963525e-01f, 2.53292024e-02f, -8.61401036e-02f, -1.69109982e-02f, 7.85243139e-02f, 5.59832044e-02f,
  7.76431570e-03f, -1.74894575e-02f, -5.98998815e-02f, 3.36843692e-02f, 3.22195329e-02f, -8.38534981e-02f, 2.06715278e-02f, -4.16839831e-02f, -6.86603785e-02f, -9.93677750e-02f, -1.28958561e-02f, 3.64254951e-03f,
  8.18473566e-03f, -2.62131523e-02f, -2.07948945e-02f, -5.92685007e-02f, 8.92081112e-02f, 4.47268821e-02f, 2.08994169e-02f, 6.48334920e-02f, 8.45813006e-03f, -5.30475155e-02f, -1.38487041e-01f, 2.81289108e-02f,
  -3.35978605e-02f, 1.58352703e-02f, 1.40524372e-01f, -1.15861617e-01f, -2.18926091e-02f, -2.62937427e-01f, -5.76625094e-02f, 5.50529175e-03f, 2.67183661e-01f, -2.26297602e-03f, -6.45267367e-02f, 3.12422156e-01f,
  -1.65617913e-01f, 1.02526791e-01f, 1.14043439e-02f, 1.24154054e-02f, -3.48399766e-02f, 7.37103149e-02f, 1.72918677e-01f, -1.73987187e-02f, 8.70828852e-02f, -1.05727710e-01f, -2.65340984e-01f, -1.98958129e-01f,
  3.25650275e-02f, 5.63690662e-02f, 2.67280564e-02f, -8.54011327e-02f, 1.58060461e-01f, -2.41480827e-01f, -8.47660527e-02f, 5.34574054e-02f, -7.70213753e-02f, 2.01703086e-01f, 3.94355029e-01f, 2.41766617e-01f,
  2.47539990e-02f, -9.81038883e-02f, -1.81932271e-01f, 6.92289919e-02f, 2.32292160e-01f, 3.08600403e-02f, 1.37979165e-01f, -1.82116367e-02f, -4.58797552e-02f, 2.13426985e-02f, -5.34351245e-02f, -1.56972945e-01f,
  1.52739391e-01f, 1.60885409e-01f, 3.12022001e-01f, 1.69343621e-01f, -1.11110248e-01f, -2.51748860e-01f, 9.16996375e-02f, -8.98160338e-02f, -5.10242507e-02f, 1.55463308e-01f, 3.04735869e-01f, 4.68964539e-02f,
  1.16531603e-01f, -1.61067635e-01f, 1.19737133e-01f, -1.92863286e-01f, -2.24714473e-01f, 5.33086956e-02f, 2.75409192e-01f, -1.01408539e-02f, -1.82886556e-01f, 1.36111468e-01f, -7.38324597e-02f, -1.15113137e-02f,
  1.94752254e-02f, -2.55794618e-02f, -5.79200462e-02f, 1.31572960e-02f, 1.71068814e-02f, -4.44027707e-02f, -2.00683460e-01f, -2.62393877e-02f, -6.23848960e-02f, -6.68628365e-02f, -1.05042137e-01f, -9.03587323e-03f,
  1.86027437e-02f, -7.15401322e-02f, -5.14646098e-02f, 5.90409115e-02f, -6.74802735e-02f, -2.03457265e-03f, -2.26900443e-01f, -1.92362256e-02f, 3.72207398e-03f, 2.49591954e-02f, -8.39531701e-03f, -1.46624487e-04f,
  -1.69760048e-01f, -4.09160554e-02f, 5.06450832e-01f, -7.19757453e-02f, 2.03986634e-02f, -8.99501219e-02f, -9.76131633e-02f, 1.05052173e-01f, -3.75434943e-02f, -8.33770558e-02f, -8.93226042e-02f, -1.21412404e-01f,
  4.65303659e-03f, -1.13879345e-01f, -2.19323173e-01f, -2.24748448e-01f, 4.92297076e-02f, -3.77044193e-02f, 2.01269701e-01f, 3.70095000e-02f, -1.83455706e-01f, 1.35875912e-02f, 2.34282929e-02f, 3.40216994e-01f,
  -2.01732921e-03f, 1.36870876e-01f, 8.50073341e-03f, -1.89874358e-02f, -5.23435250e-02f, -2.50756264e-01f, 8.17025900e-02f, 1.21459654e-02f, -1.31485075e-01f, -1.32951483e-01f, 3.04420739e-01f, 1.21883444e-01f,
  1.08430963e-02f, -1.01647235e-01f, -8.48721340e-02f, 1.13343839e-02f, -4.77995649e-02f, -2.41713867e-01f, 1.78943112e-01f, 1.61992267e-01f, 1.14030711e-01f, 1.70737892e-01f, -2.21809931e-02f, -6.42313585e-02f,
  2.29039937e-02f, -4.42035906e-02f, 3.13488096e-02f, 4.80740592e-02f, -1.73697203e-01f, 3.59384343e-02f, 2.11645421e-02f, -1.36230454e-01f, -1.82807729e-01f, 6.39799908e-02f, -6.44304499e-04f, 8.29123780e-02f,
  -8.77593905e-02f, -1.03601962e-01f, -7.60770366e-02f, 1.30262211e-01f, 3.35123762e-03f, -1.98907703e-01f, -2.70692170e-01f, 2.89245490e-02f, 2.93944012e-02f, -3.22974563e-01f, -2.53245309e-02f, -7.03930259e-02f,
  -4.87040877e-02f, -2.52374937e-03f, -1.67085677e-01f, 2.65765756e-01f, -3.64919543e-01f, -4.45606783e-02f, 1.85326412e-01f, 1.31733939e-01f, -5.81614673e-02f, 8.51482153e-02f, -1.19734831e-01f, -1.14043616e-01f,
  -6.76530451e-02f, 2.92533040e-02f, -1.31358027e-01f, 1.67852223e-01f, -7.06593553e-03f, 6.77996650e-02f, -7.35523738e-03f, -2.16246665e-01f, -1.58891544e-01f, -6.68910053e-03f, -3.04526955e-01f, 1.67470828e-01f,
  1.30123109e-01f, 3.15814354e-02f, -7.01323971e-02f, 7.59615228e-02f, -2.81455573e-02f, -8.18951428e-03f, -3.53422947e-02f, -2.83072013e-02f, -2.74849355e-01f, 6.41646907e-02f, -1.08219022e-02f, -1.81998238e-02f,
  2.93120202e-02f, 2.77515016e-02f, 2.01229647e-01f, -1.16911987e-02f, -4.63171080e-02f, -9.60820634e-03f, -2.15446427e-02f, 3.73046962e-03f, -6.31697848e-02f, -4.96880673e-02f, -1.42814284e-02f, 2.60891486e-02f,
  1.26437917e-02f, -3.53277661e-02f, 1.55338524e-02f, -1.40138483e-03f, 3.97191405e-01f, 4.39304747e-02f, -3.35668214e-02f, -1.08258799e-01f, -7.43430704e-02f, 4.34122160e-02f, -5.10006212e-02f, -5.53335324e-02f,
  -2.25426927e-02f, -1.19778309e-02f, 7.58862719e-02f, -5.30246980e-02f, -1.86717212e-01f, -5.35974056e-02f, 2.61257980e-02f, -4.97128479e-02f, 8.29067677e-02f, -9.45150107e-02f, -1.77316979e-01f, -1.13989413e-01f,
  -8.60762745e-02f, -1.18399121e-01f, 1.15256637e-01f, -1.55499548e-01f, -1.07773572e-01f, -1.01471163e-01f, 3.21313478e-02f, 7.88265467e-02f, -8.83829743e-02f, 1.62385285e-01f, 1.32352961e-02f, 3.48020718e-02f,
  -1.03180043e-01f, -9.52419918e-03f, 1.85809378e-02f, 1.53395578e-01f, 8.02297071e-02f, 4.86270115e-02f, 1.61397289e-02f, -7.35478476e-02f, -6.64616078e-02f, -1.59056127e-01f, 6.27063066e-02f, -8.01561326e-02f,
  9.97095183e-02f, 7.89468549e-03f, -4.88264225e-02f, 1.80351973e-01f, -4.62005958e-02f, -8.77213031e-02f, -9.43257660e-02f, -7.47150555e-03f, 2.09135070e-01f, 1.09952629e-01f, 1.35167345e-01f, 1.71216726e-02f,
  -6.90446049e-02f, -4.99219857e-02f, -5.77962957e-02f, 6.55099601e-02f, -5.76659031e-02f, -4.05669883e-02f, -3.11132311e-03f, -2.32565850e-01f, 1.43271521e-01f, -8.26940313e-03f, -8.95540342e-02f, 8.02500993e-02f,
  -9.12075788e-02f, -1.29249126e-01f, -1.27219766e-01f, 6.74845129e-02f, -1.26958817e-01f, -1.07004806e-01f, -5.12376428e-02f, -7.81585574e-02f, -1.13283664e-01f, -1.70595795e-02f, -4.06236351e-02f, -4.10641208e-02f,
  1.99134499e-02f, -1.12935551e-01f, 8.47488791e-02f, 1.35017142e-01f, -1.00068957e-01f, -7.54963607e-02f, 1.08029902e-01f, -1.18367210e-01f, 1.00418732e-01f, 6.33978993e-02f, -1.48424134e-02f, -1.00053735e-01f,
  5.25173098e-02f, 3.19183767e-02f, -5.92260733e-02f, -1.38025627e-01f, -6.25853166e-02f, 3.32871675e-02f, -8.91849548e-02f, 1.17134318e-01f, -3.71775478e-02f, 8.35982710e-02f, -7.64657110e-02f, 1.40503347e-01f,
  -7.11828917e-02f, 1.92532629e-01f, 7.80531093e-02f, -2.81458907e-03f, -1.18574306e-01f, 2.27363221e-02f, 2.39030287e-01f, 3.58606763e-02f, -8.48986059e-02f, -3.62335667e-02f, -3.31075788e-02f, 6.65275678e-02f,
  5.63611230e-03f, -1.21967480e-01f, 1.23844385e-01f, 2.53962670e-02f, 5.03013246e-02f, -7.14825615e-02f, -2.40011722e-01f, -2.39862487e-01f, 7.61768147e-02f, -1.32756710e-01f, -7.60026202e-02f, 1.87408999e-01f,
  4.19870056e-02f, -1.09998807e-01f, 9.43782553e-02f, 1.03879478e-02f, -7.16644228e-02f, 4.49580848e-02f, 9.27497968e-02f, 2.26767853e-01f, 4.15645465e-02f, 1.69288650e-01f, 1.71388298e-01f, -3.32081541e-02f,
  4.70040515e-02f, 4.40431088e-02f, 1.85607567e-01f, 3.17303985e-02f, 2.53689103e-03f, 2.14619637e-02f, -1.32347057e-02f, -5.95685691e-02f, -4.66213524e-02f, -6.62043020e-02f, 8.93512890e-02f, 2.73861706e-01f,
  1.29983090e-02f, -5.83891198e-02f, -6.19447716e-02f, -6.88374508e-03f, 7.49589279e-02f, -7.14204907e-02f, -8.44857171e-02f, -5.14309388e-03f, -7.93601722e-02f, 2.51396410e-02f, -9.42166522e-02f, 3.18892114e-02f,
  -2.79571861e-02f, -2.82570329e-02f, -1.84005007e-01f, -1.59131110e-01f, -2.07152311e-02f, 1.54156853e-02f, 6.41462728e-02f, -1.01422742e-01f, -3.27952802e-02f, -3.43893506e-02f, 1.45803113e-02f, 9.01146233e-02f,
  -1.31619975e-01f, -4.84249629e-02f, 2.19223842e-01f, -2.47849777e-01f, 6.58703223e-02f, -2.69207428e-03f, -9.87950563e-02f, -5.05200848e-02f, 7.79766887e-02f, 1.22016497e-01f, -6.79933727e-02f, -3.86786349e-02f,
  -9.34845805e-02f, 1.23013645e-01f, 3.42329554e-02f, -1.10981442e-01f, 8.87689739e-02f, 1.07004531e-01f, -1.29672065e-01f, 1.49140731e-01f, 6.84317723e-02f, -1.44813672e-01f, 9.20942519e-03f, 3.01741157e-02f,
  1.18556261e-01f, -1.14495903e-01f, 1.06845625e-01f, 1.21384645e-02f, 8.82775113e-02f, -1.44681800e-02f, -1.10359922e-01f, 5.88530265e-02f, -7.66354650e-02f, 2.60344706e-02f, 4.21372466e-02f, -1.98455647e-01f,
  -1.70718245e-02f, -5.59051856e-02f, -9.03037935e-02f, 8.29285309e-02f, 1.34135202e-01f, -5.48444502e-03f, -5.63475862e-02f, 1.72661647e-01f, -4.63702716e-02f, -9.30374712e-02f, -4.28004861e-02f, -5.59131801e-02f,
  4.23022769e-02f, -2.59423628e-03f, 1.13210507e-01f, 1.61952451e-01f, 2.41267104e-02f, 7.86387697e-02f, -9.93245915e-02f, -1.67613826e-03f, -4.51304875e-02f, -1.64659128e-01f, 2.48187734e-03f, -7.05862185e-03f,
  -1.88333821e-02f, 1.57662854e-02f, -9.53880474e-02f, -1.78591847e-01f, -1.44575581e-01f, -8.96945745e-02f, 3.10081150e-02f, -2.32244860e-02f, -1.39035523e-01f, 5.68852089e-02f, -1.01670213e-01f, -1.07103616e-01f,
  -1.51987910e-01f, -5.55737950e-02f, 5.40577341e-04f, -2.33647749e-02f, -1.45354122e-01f, -1.36130139e-01f, -1.19054981e-01f, 1.14465304e-01f, -1.48975119e-01f, -1.45184979e-01f, -1.71900138e-01f, -7.18578622e-02f,
  -1.03930362e-01f, -3.11565474e-02f, 6.75190911e-02f, 1.22993700e-02f, -7.70224631e-02f, 2.01010108e-02f, 7.32612750e-03f, 5.94743993e-03f, -3.34911011e-02f, -4.98649338e-03f, 1.17402757e-03f, 2.68238913e-02f,
  -1.30599007e-01f, -5.71462698e-02f, -1.24595962e-01f, -1.01530455e-01f, 7.81144202e-02f, -6.52768388e-02f, -5.36335586e-03f, 1.16550229e-01f, 1.14147719e-02f, -2.09473111e-02f, 3.80677693e-02f, 2.76561193e-02f,
  7.07110465e-02f, -8.84758681e-02f, -2.46045440e-02f, -9.71251428e-02f, 3.04197446e-02f, -3.15286890e-02f, -3.75711918e-02f, -5.62362373e-02f, -4.59139347e-02f, -6.06510378e-02f, -2.25895002e-01f, -6.18081074e-03f,
  4.40544248e-01f, -1.35575190e-01f, -5.39112799e-02f, -2.46434361e-01f, 4.47919071e-02f, 2.28062287e-01f, 1.10619655e-02f, -1.47308856e-02f, -1.40957296e-01f, 2.31507033e-01f, 9.72535610e-02f, -1.36761060e-02f,
  4.93181758e-02f, -1.98697358e-01f, 2.45943554e-02f, 2.13365883e-01f, -8.48277062e-02f, -5.97960465e-02f, -9.54101905e-02f, 2.27985248e-01f, 7.79607445e-02f, 8.14463496e-02f, -2.92890370e-01f, 1.93010554e-01f,
  6.80754110e-02f, -4.04894799e-02f, -1.63823873e-01f, 1.09063372e-01f, 3.21926884e-02f, 5.96213192e-02f, 3.17719072e-01f, 5.44865951e-02f, -4.31177765e-01f, 1.31297270e-02f, 1.14957914e-01f, 1.22107685e-01f,
  -8.26658905e-02f, -2.25130603e-01f, -1.92490280e-01f, -5.48555963e-02f, -6.89952672e-02f, -2.95793891e-01f, -1.27503708e-01f, 1.50066465e-02f, 5.21835461e-02f, 2.41794482e-01f, -1.50565833e-01f, -2.88035631e-01f,
  3.01698484e-02f, 1.46128342e-01f, 2.31451422e-01f, -4.00742650e-01f, -2.87316963e-02f, -1.01746425e-01f, 3.70723873e-01f, -3.50469738e-01f, 8.57242718e-02f, 3.21856933e-03f, 3.32158729e-02f, 8.15022886e-02f,
  -1.08608991e-01f, -6.50068045e-01f, -2.30217800e-01f, 1.20100556e-02f, -2.06749335e-01f, -7.28574321e-02f, 2.57436275e-01f, -1.48442954e-01f, -2.86153466e-01f, -1.04993284e-01f, -6.48062527e-02f, -2.56988127e-02f,
  -9.32639986e-02f, 4.21355516e-02f, 1.15604967e-01f, -1.55050412e-01f, -1.40904874e-01f, 5.35743125e-02f, -6.35932013e-02f, 1.00913696e-01f, -1.12120457e-01f, -1.13165230e-01f, 1.18245920e-02f, -6.62143691e-04f,
  -8.61206874e-02f, 3.46840113e-01f, -5.30973682e-03f, -4.23576385e-02f, 1.91736370e-01f, -2.53804237e-01f, -7.42176995e-02f, 1.34120598e-01f, -1.96482316e-01f, 2.14899987e-01f, 2.10189834e-01f, 1.16111666e-01f,
  1.01468459e-01f, -1.69387653e-01f, 1.57731533e-01f, -1.19259767e-01f, 6.96914792e-02f, -1.75301416e-03f, -7.71909952e-02f, 4.41606753e-02f, 1.47930995e-01f, 6.60714805e-02f, -5.50444312e-02f, 7.70437792e-02f,
  3.85927595e-02f, -1.49369553e-01f, 7.93328881e-02f, -8.80664289e-02f, -3.51161472e-02f, 2.92211682e-01f, -5.04788123e-02f, -1.00653850e-01f, -8.38294476e-02f, -7.42796734e-02f, -4.50544234e-04f, -5.91407791e-02f,
  -1.83539279e-02f, 2.86999587e-02f, -3.14708077e-03f, 1.93200350e-01f, 4.09903191e-02f, -2.32694373e-01f, -7.12889135e-02f, -1.87291935e-01f, 6.48064166e-02f, 1.52511865e-01f, -4.21589203e-02f, 6.96018189e-02f,
  -7.89414793e-02f, 5.66098988e-02f, 9.20308158e-02f, -2.00928926e-01f, -4.00518551e-02f, 1.25367656e-01f, -8.56879503e-02f, 1.62554830e-01f, 1.11657619e-01f, 4.99171913e-02f, -6.39837533e-02f, 2.64884047e-02f,
  -1.41810685e-01f, 2.90562093e-01f, -6.60465285e-02f, -6.42691776e-02f, -6.16928302e-02f, -5.49971581e-01f, -9.22043249e-02f, -5.82914762e-02f, -2.22577989e-01f, 2.45087087e-01f, 1.16273493e-01f, -1.86784510e-02f,
  3.47409546e-02f, 2.04670593e-01f, 3.11259702e-02f, -2.33928505e-02f, 1.55193508e-01f, -9.31143761e-02f, 6.16364405e-02f, -3.48668285e-02f, -4.43519987e-02f, 3.56426686e-02f, -2.99998038e-02f, 5.39401844e-02f,
  -1.94903426e-02f, -1.36124730e-01f, -2.58459151e-01f, 2.53853858e-01f, 4.29099537e-02f, 1.38736799e-01f, 1.42494496e-02f, -2.21115332e-02f, -2.71316111e-01f, 6.86751232e-02f, 4.99188551e-04f, 1.21292092e-01f,
  9.57276672e-02f, -1.42901421e-01f, 3.29430625e-02f, -5.81913553e-02f, -9.10922214e-02f, 1.37997106e-01f, 1.11516155e-01f, 1.04725644e-01f, -2.03228146e-01f, 3.30796093e-02f, -4.32001427e-02f, -6.77488372e-02f,
  -3.94855021e-03f, -5.69191091e-02f, 6.89017996e-02f, 4.05815914e-02f, 1.36504903e-01f, 6.91643357e-02f, 3.56718572e-03f, -2.36382317e-02f, -6.18499937e-03f, -3.69837023e-02f, -1.06968001e-01f, -5.49619421e-02f,
  1.52138658e-02f, 6.20885827e-02f, -1.28676251e-01f, -2.75054108e-02f, 1.99184403e-01f, -2.53337845e-02f, -3.78220230e-02f, 1.02233857e-01f, -4.57591638e-02f, 1.66177079e-01f, 7.23157600e-02f, 9.13672894e-02f,
  1.44795077e-02f, -2.26296172e-01f, 8.59540477e-02f, 1.32307291e-01f, 1.65161744e-01f, 5.13632856e-02f, -1.27475783e-01f, 4.30209935e-03f, -4.20064330e-02f, -1.09263286e-01f, 1.99721202e-01f, 1.25854701e-01f,
  -1.38293430e-01f, -9.10889078e-03f, 1.41685128e-01f, 4.53865565e-02f, 2.63439268e-01f, 4.08545732e-02f, 1.07685421e-02f, 1.87651545e-01f, -2.30563208e-02f, -5.64106032e-02f, -7.34444186e-02f, 8.85195658e-03f,
  3.05650443e-01f, 1.32417411e-01f, 8.58720019e-02f, -2.89502144e-02f, -1.49451658e-01f, 2.51727458e-02f, -9.36702341e-02f, 1.12148412e-01f, -2.60350928e-02f, 9.79804620e-02f, 6.10946491e-02f, 9.65837911e-02f,
  -1.01685882e-01f, 3.54502234e-03f, -1.94289722e-02f, 1.18728401e-02f, 1.41239434e-01f, -8.98962766e-02f, -3.64433937e-02f, -8.51398855e-02f, -1.25040889e-01f, -4.37067486e-02f, -9.51965228e-02f, -1.77252572e-02f,
  -9.31050181e-02f, -3.86454090e-02f, 8.02939683e-02f, 2.59236377e-02f, -1.41806558e-01f, -5.11391871e-02f, -1.93858892e-02f, 6.01807470e-03f, -2.01303363e-02f, -2.65209172e-02f, -5.85082453e-03f, -9.68703330e-02f,
  -9.76925716e-02f, 8.90642405e-02f, -1.69324540e-02f, 1.19641967e-01f, 7.19880238e-02f, -1.00142874e-01f, -5.12995906e-02f, -2.70649105e-01f, 9.44852754e-02f, 9.69786271e-02f, 1.23633500e-02f, 9.41341817e-02f,
  -6.41622543e-02f, -7.13943690e-02f, 5.12912124e-02f, -1.43404543e-01f, -9.82302353e-02f, -2.82647833e-02f, 5.84893813e-03f, -1.16323054e-01f, 5.15766144e-02f, -9.16784927e-02f, -1.00349322e-01f, 6.98497221e-02f,
  7.84390569e-02f, 4.40747198e-03f, -4.86079194e-02f, 1.77314878e-02f, -1.11645143e-02f, -5.54006957e-02f, -9.92788970e-02f, -6.74606040e-02f, 8.08326453e-02f, 5.55493645e-02f, 1.60218701e-02f, 1.42104840e-02f,
  -2.40999516e-02f, -1.02684021e-01f, -6.70066848e-02f, 2.32662708e-02f, 5.15886918e-02f, 1.70281991e-01f, 3.10560167e-02f, 2.40044165e-02f, 9.18723047e-02f, -1.00218818e-01f, -1.17971981e-02f, -1.16024110e-02f,
  -8.54543746e-02f, -2.71209087e-02f, -7.91462511e-02f, -1.00105703e-01f, -1.40625209e-01f, 1.10097744e-01f, -2.17658877e-02f, -4.90308926e-02f, -1.26654863e-01f, 4.75293472e-02f, 7.45387673e-02f, 2.15716497e-03f,
  2.93948591e-01f, -5.61128967e-02f, -1.92720190e-01f, -1.14245884e-01f, 3.53357270e-02f, -1.47369551e-02f, -1.12923928e-01f, 1.17743807e-02f, 3.00018340e-02f, 1.35923281e-01f, -8.22954625e-02f, 8.72831121e-02f,
  -6.02941588e-03f, 1.36591122e-01f, -7.19848052e-02f, -5.98971769e-02f, 6.27476275e-02f, -7.25944266e-02f, -6.45401254e-02f, -6.09763823e-02f, 7.82423466e-02f, 8.78548473e-02f, 4.70666736e-02f, -3.44755352e-02f,
  5.45688830e-02f, -3.56665812e-02f, 1.19100451e-01f, 9.34596583e-02f, -4.11612839e-02f, 6.67812228e-02f, 4.10304498e-03f, 4.96831350e-02f, -8.88822228e-02f, 7.77963549e-03f, 3.02778557e-02f, 8.42164755e-02f,
  -2.92225406e-02f, -1.32647172e-01f, 2.04394162e-02f, -8.05839375e-02f, 3.80927026e-02f, -4.05439734e-02f, 5.16879149e-02f, 5.77053614e-02f, 1.03674568e-01f, -1.61211610e-01f, 1.38611048e-01f, -2.66549643e-02f,
  7.93226808e-02f, -5.01899831e-02f, 5.35480864e-02f, -3.86966835e-03f, -1.89531446e-02f, 1.12359181e-01f, 7.37069845e-02f, 6.95182905e-02f, 2.53404528e-02f, -2.62340996e-02f, -1.22725358e-02f, 5.83349057e-02f,
  3.21753174e-02f, -1.84802804e-02f, -1.90155841e-02f, 4.62397411e-02f, 2.63267700e-02f, -6.46312460e-02f, 4.41097729e-02f, 8.88107345e-02f, -1.03259776e-02f, -4.40984108e-02f, 9.26941112e-02f, 1.02815719e-03f,
  -6.52907044e-02f, -5.12151644e-02f, -6.35309052e-03f, 9.19589587e-03f, 4.35788557e-02f, -3.67011130e-02f, 8.01615119e-02f, 6.84958771e-02f, 1.52032236e-02f, -5.63753434e-02f, -8.91810358e-02f, -4.92718909e-03f,
  -4.08424810e-02f, 4.38702442e-02f, 1.63221639e-02f, -2.55016595e-01f, 1.88156087e-02f, -5.53997979e-02f, -3.14871110e-02f, -5.52486144e-02f, 5.28033152e-02f, 3.77797037e-02f, 4.20436971e-02f, -3.79123762e-02f,
  1.55567378e-02f, 3.77309769e-02f, 1.77318797e-01f, 1.68984886e-02f, -5.37551083e-02f, -5.25271008e-03f, -1.33238258e-02f, 1.80791970e-02f, -1.73094333e-03f, 3.20150331e-02f, -9.82873067e-02f, -6.87120929e-02f,
  4.69253585e-02f, 9.56712514e-02f, 8.60878304e-02f, 4.31915969e-02f, 3.62841636e-02f, 1.39839575e-01f, 2.23388851e-01f, -1.84664309e-01f, -1.26565874e-01f, 4.19642329e-02f, 7.36376196e-02f, -1.03201963e-01f,
  -1.42917475e-02f, 1.39353216e-01f, 1.38957411e-01f, -1.78722963e-01f, -6.59325719e-02f, -7.17477351e-02f, 1.39723331e-01f, 4.08236086e-02f, 9.00461748e-02f, -1.74681529e-01f, -1.72890216e-01f, -1.15222983e-01f,
  -1.36023164e-01f, 5.61188161e-02f, -1.67267501e-01f, 7.67438300e-03f, -1.09824210e-01f, -2.79368699e-01f, -2.68172510e-02f, -4.43177037e-02f, -1.76642537e-01f, -1.73079833e-01f, 1.02547921e-01f, 2.76074111e-01f,
  -1.45746386e-02f, -8.73828605e-02f, -2.53109604e-01f, 5.05694896e-02f, 3.06109548e-01f, -7.29688406e-02f, 4.51798066e-02f, 7.44038820e-02f, -4.23365310e-02f, -4.06966358e-02f, -7.57584870e-02f, -2.40854528e-02f,
  3.02862406e-01f, 2.08683550e-01f, 4.47006047e-01f, 8.47148150e-02f, -8.79685357e-02f, -2.70655453e-01f, 9.24973786e-02f, -6.00824431e-02f, -1.11364881e-02f, 7.69620538e-02f, 1.56813920e-01f, -2.73726657e-02f,
  1.90439269e-01f, -2.41826519e-01f, 2.02435613e-01f, -1.59739539e-01f, -4.59589064e-02f, -6.76190034e-02f, 8.67881998e-02f, 1.57741029e-02f, -9.08937603e-02f, -2.04615206e-01f, -1.38257118e-02f, 5.09464444e-05f,
  -1.18155271e-01f, -5.10770567e-02f, -5.80999942e-04f, 4.13667932e-02f, -8.91824588e-02f, 3.75410914e-02f, 2.81346917e-01f, 4.25189361e-02f, -1.75780579e-01f, -7.66152367e-02f, -1.29870817e-01f, -1.35873174e-02f,
  -6.41437597e-04f, -3.28969993e-02f, -1.69468433e-01f, -2.71503944e-02f, -8.07280019e-02f, 8.28267820e-03f, -1.64240226e-02f, -2.40964934e-01f, -4.25008796e-02f, -3.19498062e-01f, -2.03534737e-01f, 8.30622613e-02f,
  -8.35016295e-02f, -7.78910667e-02f, 1.26789331e-01f, 1.63695477e-02f, 4.15664911e-01f, -2.13877246e-01f, 2.38992330e-02f, -2.47575372e-01f, 9.36944336e-02f, 5.57601511e-01f, 2.00011536e-01f, -8.35815519e-02f,
  2.61156075e-02f, 3.96821141e-01f, -2.91207790e-01f, -1.42386585e-01f, -2.36549862e-02f, -2.73948666e-02f, -3.23726505e-01f, 2.63444567e-03f, -2.89642304e-01f, -2.21381024e-01f, -2.11600512e-02f, -1.30368844e-01f,
  5.64339524e-03f, -5.87164946e-02f, -3.47266905e-02f, 1.35403618e-01f, -3.65197994e-02f, -2.38014370e-01f, 1.92819566e-01f, 7.51239993e-03f, -8.22678432e-02f, -6.17447756e-02f, -4.97766584e-01f, -6.86746538e-02f,
  -4.28164601e-02f, -1.73028305e-01f, -1.18937239e-01f, 1.27737463e-01f, -2.80205850e-02f, 7.20979199e-02f, -2.89946824e-01f, -4.19200629e-01f, -1.08888768e-01f, -1.99485123e-01f, 2.94926107e-01f, -5.76971434e-02f,
  2.07062834e-03f, 8.07832368e-03f, 1.83893576e-01f, -9.19446256e-03f, -5.96007407e-02f, -1.07549429e-01f, 1.16156235e-01f, 2.56418109e-01f, -1.17481895e-01f, -1.06154010e-01f, 1.52268320e-01f, -1.45861223e-01f,
  -3.72386463e-02f, -1.02744527e-01f, -1.13928340e-01f, -3.71589750e-01f, 2.04430252e-01f, 1.18353449e-01f, -3.66177678e-01f, -1.21418558e-01f, 4.98722166e-01f, -2.34768152e-01f, 5.74687589e-03f, -2.41877303e-01f,
  4.71690595e-01f, 4.76415545e-01f, 4.05133814e-01f, -9.85950977e-03f, 2.10659027e-01f, 4.26777393e-01f, 4.34691906e-01f, -1.64863288e-01f, 1.15562333e-02f, 5.23422547e-02f, -4.93008196e-01f, 1.02007143e-01f,
  -1.20591693e-01f, -3.20382528e-02f, -3.70470047e-01f, -1.12573989e-01f, -1.64630398e-01f, 1.93825781e-01f, -3.76434773e-01f, 7.72451818e-01f, 1.64016280e-02f, 1.55486725e-02f, -5.06471932e-01f, -2.01630250e-01f,
  2.11426049e-01f, 7.36048445e-02f, -6.68252781e-02f, 2.75732219e-01f, -4.03563865e-02f, -3.07336506e-02f, -9.31832865e-02f, -3.47672924e-02f, 3.28731626e-01f, 2.56797485e-02f, -4.10015695e-03f, -1.03007384e-01f,
  3.03361658e-02f, -5.11452705e-02f, -7.27172866e-02f, -8.83196369e-02f, -2.66035479e-02f, -4.19781953e-02f, -6.64841533e-02f, 1.35537479e-02f, -7.37440065e-02f, 3.49884271e-03f, -1.14213908e-02f, 7.96375051e-02f,
  -5.19613586e-02f, 9.88900736e-02f, 7.05111865e-03f, 1.22137005e-02f, -3.05752367e-01f, -1.07495477e-02f, -1.79360881e-02f, -4.70979780e-01f, 6.00962974e-02f, 1.48260862e-01f, 3.55280899e-02f, 1.64244343e-02f,
  4.51714247e-02f, -2.81937808e-01f, 3.92999984e-02f, 3.99577379e-01f, -1.39790224e-02f, 8.59492049e-02f, -3.99983972e-02f, -3.09088588e-01f, -8.13949853e-02f, 2.53218234e-01f, -1.01768017e-01f, 1.39173850e-01f,
  -4.46938351e-02f, 5.15185185e-02f, -2.44756732e-02f, 3.24577801e-02f, 6.73881769e-02f, 2.27775574e-02f, 5.73014840e-02f, -9.00053605e-02f, 5.22851124e-02f, 2.97205406e-03f, 1.80339068e-01f, 1.97769683e-02f,
  -4.77296971e-02f, -8.94957632e-02f, 1.09103709e-01f, 3.93114835e-02f, -6.24867864e-02f, 1.20312139e-01f, 6.10870793e-02f, -2.20668986e-02f, 4.62170020e-02f, -1.54339314e-01f, -1.59226537e-01f, -3.84224467e-02f,
  2.94077128e-01f, -1.55402790e-03f, 1.95204377e-01f, -5.00264056e-02f, 7.82353580e-02f, 2.89813690e-02f, 1.48531133e-02f, 6.16523344e-03f, -5.81506453e-02f, -6.69290274e-02f, -6.81866929e-02f, 1.32476196e-01f,
  1.84903383e-01f, -1.34341344e-01f, -1.47274718e-01f, -1.45719014e-02f, 6.21578423e-03f, 7.45136589e-02f, -2.25614920e-01f, 7.83481225e-02f, -1.29378453e-01f, -1.00510739e-01f, 5.57828695e-02f, -1.27906293e-01f,
  -1.30981743e-01f, 7.84659684e-02f, 6.75736368e-02f, -1.29362494e-01f, -1.05894357e-02f, -3.77558172e-03f, 7.36380965e-02f, -1.26983494e-01f, 9.68426913e-02f, -1.80942938e-02f, -1.13583446e-01f, -7.42221996e-02f,
  -3.19253132e-02f, -3.00042555e-02f, 1.24703124e-01f, 1.10598654e-01f, 8.04852694e-02f, -6.06292486e-03f, -7.02609718e-02f, -1.12782672e-01f, 9.80877280e-02f, -1.31152406e-01f, 8.52073729e-02f, -1.23628467e-01f,
  -5.60506880e-02f, 1.30907908e-01f, -3.18331048e-02f, -6.05395734e-02f, -8.29907730e-02f, -9.20531154e-03f, -1.21352300e-01f, -1.24984428e-01f, 3.41802910e-02f, -8.81631747e-02f, 2.47397050e-01f, 1.06888860e-01f,
  -2.09110633e-01f, 3.43217775e-02f, 6.01112619e-02f, -2.61883661e-02f, -2.26453543e-02f, -1.79410398e-01f, -3.68569255e-01f, 1.29615203e-01f, -1.93716571e-01f, -2.31455296e-01f, 8.74434635e-02f, 1.58320945e-02f,
  -1.63396820e-02f, 8.48569497e-02f, 3.11972816e-02f, -2.45081425e-01f, -7.07078651e-02f, -1.10820279e-01f, 1.11426145e-01f, -9.10799652e-02f, -1.50397092e-01f, -4.51381095e-02f, -9.65766758e-02f, -4.37580973e-01f,
  4.34044190e-02f, -1.22939549e-01f, 1.81143239e-01f, 3.55499610e-02f, 1.17102288e-01f, -3.01972702e-02f, 1.94331706e-01f, -4.03883941e-02f, -9.35984552e-02f, -1.00901969e-01f, 1.18641295e-01f, -9.15876999e-02f,
  2.00480111e-02f, -2.02365503e-01f, -4.76867825e-01f, 3.72590236e-02f, -1.93679705e-01f, -3.79184753e-01f, -1.49306962e-02f, -1.27262264e-01f, 1.26787975e-01f, 6.86028972e-02f, 1.85036168e-01f, -8.19415413e-03f,
  1.20518200e-01f, -3.86297442e-02f, 4.34610657e-02f, -2.70309076e-02f, -1.14116846e-02f, 2.14167088e-01f, -8.84270519e-02f, -2.94944108e-01f, -8.57629552e-02f, 1.05613396e-01f, 1.72259705e-03f, 1.39960974e-01f,
  2.62789905e-01f, 1.05995215e-01f, -5.09915948e-02f, -2.33962059e-01f, 1.86996251e-01f, -1.48820966e-01f, 8.95149782e-02f, -2.94126660e-01f, 4.17019762e-02f, 2.45966390e-01f, 2.89832652e-01f, 1.19553935e-02f,
  1.63293481e-01f, 6.08058646e-02f, 1.65919945e-01f, -1.32681295e-01f, -1.36748776e-01f, 1.37087386e-02f, -1.26160175e-01f, 1.22144505e-01f, -1.79599926e-01f, -1.06307343e-01f, -3.68017972e-01f, -8.32241029e-02f,
  -2.59415597e-01f, 1.52166724e-01f, -3.26907456e-01f, 3.68738085e-01f, -1.77306999e-02f, -9.07997936e-02f, -1.59264490e-01f, -9.05064344e-02f, 1.70750767e-01f, 6.24794438e-02f, -2.94309929e-02f, -1.43804830e-02f,
  1.96057141e-01f, -9.96514708e-02f, -8.01335052e-02f, -1.12197943e-01f, -1.06150713e-02f, 3.15213203e-01f, 3.46305132e-01f, 1.42333671e-01f, 1.74200043e-01f, 2.62835205e-01f, 1.51020467e-01f, -2.25340530e-01f,
  4.81542870e-02f, -6.46026954e-02f, -2.02835128e-01f, 1.68250546e-01f, -1.65719613e-01f, 1.34749845e-01f, -1.61113724e-01f, -1.30315498e-01f, -2.04415455e-01f, -8.11962783e-02f, -2.27180123e-01f, 3.32269460e-01f,
  -1.20134816e-01f, -1.83099061e-01f, -1.64690256e-01f, 2.39834841e-02f, 6.07775785e-02f, 1.37440050e-02f, -1.16706252e-01f, -2.09590867e-02f, -2.30167788e-02f, -5.76552749e-02f, 6.62650680e-03f, -9.33471397e-02f,
  -4.70446981e-02f, -1.32382929e-01f, 2.61157583e-02f, -4.10669558e-02f, 8.71661026e-03f, -1.61619186e-01f, 1.45033961e-02f, -1.12283885e-01f, 4.87962104e-02f, -4.02909666e-02f, -1.69593439e-01f, 5.43958042e-03f,
  -3.45794372e-02f, -1.19289815e-01f, 2.96463482e-02f, 2.46636532e-02f, 8.94086733e-02f, -8.37264061e-02f, -1.67105086e-02f, 1.10250968e-03f, -1.16990775e-01f, -1.95390657e-01f, -1.70643672e-01f, -2.14082077e-01f,
  -7.37785473e-02f, -3.33357975e-02f, 9.23233703e-02f, 5.56761436e-02f, -5.09485416e-02f, -1.72145262e-01f, -7.96620175e-02f, 1.00002624e-01f, -2.29829308e-02f, 5.86300045e-02f, 7.97178224e-03f, -2.10772961e-01f,
  -1.63344473e-01f, -8.98436531e-02f, 1.33458413e-02f, -1.40512124e-01f, 1.70426089e-02f, -6.55023530e-02f, -5.14607644e-03f, 2.29560435e-02f, -5.75021990e-02f, -1.77178695e-03f, 1.30995089e-04f, 2.62015685e-02f,
  -8.62971023e-02f, -1.16730981e-01f, -1.77752808e-01f, 5.28241843e-02f, -1.87690094e-01f, -1.71523601e-01f, 2.43306085e-02f, -2.62794830e-03f, -3.30380686e-02f, 1.96036836e-03f, 4.30024639e-02f, -7.89976344e-02f,
  4.48487908e-01f, -1.15395337e-01f, -7.86249116e-02f, -3.43369633e-01f, 5.06164692e-02f, 2.93345809e-01f, 6.73588753e-01f, -1.31473377e-01f, 1.10220559e-01f, 3.88113737e-01f, 2.13057294e-01f, -1.10601395e-01f,
  -1.49715811e-01f, -6.03282861e-02f, -2.90326536e-01f, 6.84759468e-02f, -7.25799873e-02f, -1.59091175e-01f, -1.38171598e-01f, -4.87698078e-01f, -4.37659062e-02f, 8.31088871e-02f, -4.05014217e-01f, 1.84031457e-01f,
  -3.84581871e-02f, 4.66379225e-02f, 9.35998373e-03f, -6.14258684e-02f, 2.96669677e-02f, 8.90941918e-03f, 9.41568241e-03f, 2.26362068e-02f, -2.77543277e-01f, -4.29717042e-02f, 7.67429173e-02f, 3.89923483e-01f,
  -1.92514230e-02f, -2.37420872e-01f, -6.40345693e-01f, 1.38163209e-01f, -4.44300659e-02f, -1.91620305e-01f, -1.55982226e-01f, -1.00133531e-01f, 3.07930887e-01f, 2.38151729e-01f, 7.36264810e-02f, -2.62221456e-01f,
  -1.60679102e-01f, 9.40823331e-02f, 3.59852582e-01f, 4.00100082e-01f, 2.24619769e-02f, -1.58371657e-01f, 5.46114206e-01f, -3.56042951e-01f, 6.58704266e-02f, 4.34738062e-02f, 7.70628750e-02f, 5.75936548e-02f,
  -6.59856051e-02f, -6.37919128e-01f, -2.43616521e-01f, -1.59883752e-01f, -1.89276606e-01f, 7.68738464e-02f, 1.14007980e-01f, -1.23250693e-01f, -2.75721461e-01f, 2.78447587e-02f, 3.78282890e-02f, 1.40542448e-01f,
  -1.24868572e-01f, -3.60906422e-02f, 2.47926891e-01f, -3.18545550e-01f, -1.51126504e-01f, -1.61816388e-01f, 5.35574667e-02f, -4.82963659e-02f, -8.93337056e-02f, -4.05800492e-02f, -1.99462045e-02f, 4.60659973e-02f,
  2.53130317e-01f, 3.72261018e-01f, -1.31506389e-02f, 9.26963910e-02f, 1.88283786e-01f, -1.36322632e-01f, -8.70605409e-02f, 3.62065174e-02f, -7.14084879e-02f, 1.14046231e-01f, 1.84538350e-01f, 1.36077046e-01f,
  -4.56438549e-02f, -1.75468490e-01f, 1.09644428e-01f, 2.31277317e-01f, 1.28566194e-03f, -1.04231529e-01f, 5.19019552e-02f, 3.59464064e-02f, 1.77502946e-03f, -1.13765717e-01f, -3.90723087e-02f, 9.74597707e-02f,
  1.25993639e-01f, 1.27923280e-01f, 1.75437052e-02f, 9.88682732e-02f, 8.03420544e-02f, 2.83808559e-01f, 1.37776714e-02f, 1.07668005e-01f, 4.55755070e-02f, -2.20503971e-01f, 9.95863974e-02f, -1.57191738e-01f,
  2.88703330e-02f, 5.78084998e-02f, 3.85162840e-03f, 2.84548551e-01f, 1.08248867e-01f, -1.41193345e-01f, 3.10842484e-01f, -1.86608210e-01f, 1.01164512e-01f, 1.33764446e-01f, 3.41177359e-02f, -2.70305812e-01f,
  -1.52552679e-01f, -8.20949078e-02f, 1.15076192e-01f, -1.96219340e-01f, -1.41273253e-02f, 4.66635339e-02f, 3.15322680e-03f, -4.95053567e-02f, -9.66979191e-02f, -1.66072458e-01f, -7.68299177e-02f, -1.25757143e-01f,
  1.54525220e-01f, 2.00628698e-01f, -2.22370639e-01f, -8.10468048e-02f, -9.73985642e-02f, -4.28720087e-01f, -3.47010761e-01f, 6.87249601e-02f, -1.42995164e-01f, 2.95793295e-01f, 3.18013877e-02f, -5.11857830e-02f,
  -1.76403686e-01f, -4.21599932e-02f, -3.67287099e-02f, -1.89333949e-02f, -2.65884828e-02f, 1.02266461e-01f, 7.75008127e-02f, 3.24565209e-02f, 4.10908237e-02f, 8.12667161e-02f, -8.14153999e-03f, 1.77974224e-01f,
  3.68009917e-02f, -5.41718528e-02f, -2.74238467e-01f, 1.90131932e-01f, -7.04671368e-02f, -4.01008800e-02f, -3.00647151e-02f, -6.07822351e-02f, -6.75208569e-02f, 8.89385492e-02f, 4.69211452e-02f, -1.55347422e-01f,
  1.71481207e-01f, -2.57314384e-01f, -1.13176197e-01f, 3.76569107e-02f, 1.09863412e-02f, 1.72446184e-02f, 3.84107344e-02f, 1.73624828e-01f, -6.60433844e-02f, 1.35513499e-01f, -8.10726210e-02f, 1.14623085e-01f,
  -5.67057543e-02f, -1.58330172e-01f, 2.33424571e-03f, -1.58005580e-02f, 2.22781330e-01f, -5.00097461e-02f, 1.46913212e-02f, 8.55378658e-02f, 6.80563971e-02f, -5.70244081e-02f, 6.27604797e-02f, 1.54624313e-01f,
  -1.29928038e-01f, -8.06614831e-02f, -4.69782688e-02f, -7.93033373e-03f, -2.15572715e-01f, -6.36122823e-02f, 8.84599984e-02f, -1.25259772e-01f, -4.37093452e-02f, 2.33719781e-01f, -5.70280254e-02f, 5.69613129e-02f,
  -6.59822486e-03f, 9.21394676e-03f, 7.84810036e-02f, 5.30197658e-02f, 1.63718224e-01f, -3.90273556e-02f, -1.84086055e-01f, 2.99626619e-01f, -1.43760636e-01f, -2.20286101e-01f, 2.61784911e-01f, 1.19509049e-01f,
  -6.87268972e-02f, -7.95003548e-02f, -1.82469368e-01f, 1.70838892e-01f, -8.60048681e-02f, -8.87908712e-02f, -1.35236859e-01f, 2.07511902e-01f, -3.41998180e-03f, 2.55111344e-02f, 7.49929249e-02f, 1.49657294e-01f,
  1.74879611e-01f, -2.61233181e-01f, 1.71935141e-01f, 7.18492195e-02f, -1.92133278e-01f, 1.40202552e-01f, 1.95390165e-01f, -7.93161169e-02f, -2.06065327e-01f, -1.09785646e-01f, 1.84361219e-01f, 3.58277597e-02f,
  -2.38260761e-01f, -8.67638213e-04f, -1.35352220e-02f, 5.80478907e-02f, -6.56138174e-03f, 1.25267759e-01f, -3.29294205e-02f, -3.47596966e-02f, -1.43306345e-01f, 7.50886649e-03f, -5.52816354e-02f, -8.99388567e-02f,
  -7.21759871e-02f, -6.58968613e-02f, 4.93473224e-02f, -1.98216382e-02f, 2.86658313e-02f, 2.65204124e-02f, -4.57486920e-02f, -3.80011238e-02f, 2.16922723e-02f, -4.39772569e-03f, 6.08734600e-03f, 6.73234910e-02f,
  -2.35924080e-01f, -9.25205499e-02f, 4.64846492e-02f, 7.92747922e-03f, 3.78993452e-02f, -4.38790806e-02f, -4.52504046e-02f, -1.71660036e-02f, 5.62194549e-02f, 7.02999020e-03f, -3.85771915e-02f, -1.77603990e-01f,
  -2.34526116e-02f, 5.92572428e-02f, -5.59197031e-02f, 4.95436229e-02f, 9.89844650e-03f, -1.02539398e-01f, -7.53080919e-02f, 1.97185986e-02f, 7.61765696e-04f, -1.28778547e-01f, -3.11498716e-02f, -9.45923757e-03f,
  -7.60677224e-03f, -2.38309032e-03f, -3.18656713e-02f, -3.00794141e-03f, 7.81513751e-02f, -2.01618895e-02f, -5.20917177e-02f, 1.11498766e-01f, -1.11281306e-01f, 5.05680479e-02f, -3.38583030e-02f, 1.07207312e-03f,
  -3.99595350e-02f, -4.39790823e-02f, -4.79807369e-02f, -3.64539586e-02f, -5.33057675e-02f, -1.97005626e-02f, 1.19976901e-01f, 1.76625729e-01f, -1.04812421e-01f, 7.66427740e-02f, -7.51449317e-02f, 8.17014351e-02f,
  1.82827592e-01f, -1.33945309e-02f, -4.99692075e-02f, -2.68698689e-02f, 8.50010291e-02f, 6.75285682e-02f, -1.03556924e-01f, -4.97615188e-02f, -4.63960804e-02f, 3.70252132e-02f, -2.11069793e-01f, 9.10215825e-02f,
  9.60163027e-02f, 6.66054785e-02f, -9.75800231e-02f, 2.26784367e-02f, -4.11673151e-02f, -1.01152780e-02f, 6.60587773e-02f, 5.31537719e-02f, 7.49252876e-03f, -5.62137812e-02f, 3.01559456e-02f, -4.77961600e-02f,
  1.16326392e-01f, -9.08788368e-02f, 1.49771243e-01f, -4.88075688e-02f, -1.52837811e-02f, 3.97063754e-02f, 4.69871052e-02f, -1.92678526e-01f, -3.01672309e-03f, -6.01651669e-02f, -5.20605966e-03f, 4.13030460e-02f,
  9.57738683e-02f, 4.07575853e-02f, 7.68418163e-02f, 1.24449790e-01f, -4.37281728e-02f, -1.15406550e-02f, -6.59147371e-03f, 1.16252964e-02f, -1.35863349e-02f, 5.19257113e-02f, 9.61401910e-02f, -2.08665561e-02f,
  4.17168671e-03f, 8.33881944e-02f, 2.81946044e-02f, -1.34634078e-02f, 1.32789046e-01f, 1.26403615e-01f, 4.53109294e-02f, 1.80686027e-01f, -8.58649332e-03f, 1.08789809e-01f, -7.39708468e-02f, 1.62740394e-01f,
  -3.88085917e-02f, 3.01227480e-01f, -2.73541622e-02f, 2.83137569e-03f, -8.50038156e-02f, 1.54602593e-02f, -3.72921452e-02f, -2.52833277e-01f, -5.92685640e-02f, 4.56902944e-02f, -7.11145326e-02f, -1.60925671e-01f,
  -6.45690709e-02f, -9.61017385e-02f, 2.63892878e-02f, -2.40026508e-02f, 9.72199216e-02f, -1.07772574e-01f, 9.12230760e-02f, -1.69371039e-01f, 2.62166727e-02f, 1.32698923e-01f, 7.24083185e-02f, 1.08151492e-02f,
  1.55042307e-02f, -1.23379119e-01f, -1.69699043e-01f, -4.86471653e-02f, 7.68180937e-02f, -4.22476567e-02f, -5.15931100e-02f, 2.09048502e-02f, -3.17225978e-02f, -5.41844517e-02f, -7.58690760e-02f, -5.09160897e-03f,
  -1.00391664e-01f, -6.45238012e-02f, -8.84560570e-02f, 1.20547011e-01f, -1.85723417e-02f, 6.78234696e-02f, -1.81017723e-02f, -9.69758332e-02f, -5.92978261e-02f, 4.35508750e-02f, -1.68581344e-02f, -1.14275245e-02f,
  5.11425361e-02f, 2.52746455e-02f, 1.31180352e-02f, -8.35832790e-04f, -6.01748526e-02f, -1.77694252e-03f, 4.72271033e-02f, 3.31549980e-02f, 6.65701972e-03f, -4.35231589e-02f, -4.22448069e-02f, -4.60664816e-02f,
  -1.50395200e-01f, -1.43950596e-01f, 5.79925105e-02f, 1.88609168e-01f, -4.49647419e-02f, -1.61316425e-01f, 3.74548621e-02f, -2.64043957e-02f, -1.78926930e-01f, -1.82512537e-01f, -1.74820442e-02f, 2.29126617e-01f,
  -3.78978029e-02f, -4.07215655e-02f, 7.24296272e-02f, -2.01831594e-01f, 3.21032181e-02f, -7.83190653e-02f, 1.04027636e-01f, 9.30565298e-02f, 1.00762315e-01f, 6.99661747e-02f, -3.83190989e-01f, 1.55451357e-01f,
  2.78281331e-01f, -1.78573150e-02f, 3.05420123e-02f, 3.75241041e-02f, 1.09482473e-02f, -1.32333711e-01f, 2.08157778e-01f, -1.00195259e-01f, -6.26937598e-02f, 3.02147686e-01f, 1.92809746e-01f, 5.70567310e-01f,
  -7.05609843e-02f, -1.73377886e-01f, -1.29531816e-01f, -3.69691513e-02f, 1.36080356e-02f, 1.19583897e-01f, 6.64089471e-02f, 7.59343728e-02f, -7.06952959e-02f, -1.18167847e-01f, -1.60694309e-02f, -3.66397463e-02f,
  2.13437825e-01f, 2.20870331e-01f, 4.20378029e-01f, 6.12063520e-02f, 2.26967677e-01f, -2.90091306e-01f, 6.74761906e-02f, -3.38044107e-01f, -5.42158969e-02f, -2.99925581e-02f, 1.54783547e-01f, -2.92185955e-02f,
  -1.86245009e-01f, -2.52116889e-01f, 1.67563111e-01f, -5.16923107e-02f, -7.84315169e-02f, 1.16811164e-01f, -5.05684130e-02f, 6.09427392e-02f, 1.84360258e-02f, 2.62874871e-01f, -1.24372259e-01f, 7.49055743e-02f,
  1.02443017e-01f, -1.36505231e-01f, 7.69535750e-02f, 1.52264284e-02f, -5.16919456e-02f, -1.42458141e-01f, 2.94948760e-02f, 4.05142568e-02f, -1.40161097e-01f, 8.17751139e-03f, -4.97511029e-02f, 7.93922767e-02f,
  -9.31651741e-02f, 1.82813611e-02f, -2.81720638e-01f, -2.60637760e-01f, -9.90769863e-02f, -5.49988858e-02f, 9.20536816e-02f, -4.03078683e-02f, -5.43420725e-02f, 1.33700252e-01f, 6.43244833e-02f, -3.04532439e-01f,
  -1.80479698e-02f, -1.39392652e-02f, -1.60830632e-01f, 1.08290516e-01f, 3.46604735e-02f, -8.54889899e-02f, -2.28227638e-02f, 5.10329843e-01f, -7.13711530e-02f, 1.25814795e-01f, -1.62395790e-01f, -1.58751547e-01f,
  2.88435668e-01f, 3.55080009e-01f, -1.92998007e-01f, 5.57078645e-02f, -9.46946666e-02f, -9.91636962e-02f, 8.72308910e-01f, 6.99354708e-02f, 7.60127325e-04f, -2.48771712e-01f, -3.20300251e-01f, 5.20586133e-01f,
  -6.08995929e-02f, 1.70385271e-01f, 2.24769637e-02f, -4.03167382e-02f, -2.44687989e-01f, -1.90078661e-01f, -1.04842640e-01f, 3.55141684e-02f, 2.60059256e-02f, -2.77456254e-01f, 2.74587899e-01f, -4.73783761e-02f,
  -1.83068514e-02f, 4.84200940e-03f, -1.42569125e-01f, -1.85758143e-03f, -6.14419617e-02f, 6.51030600e-01f, -1.64175346e-01f, -7.83240944e-02f, -1.06786057e-01f, 8.77489030e-01f, 4.27272078e-03f, 5.65166883e-02f,
  1.05090022e-01f, 8.84669572e-02f, 1.01837523e-01f, -9.77299660e-02f, 1.46362677e-01f, -6.97020292e-02f, 2.38814261e-02f, 4.28754091e-01f, -9.55824256e-02f, -1.04020657e-02f, 8.18051621e-02f, -2.12173648e-02f,
  -3.55541974e-01f, -1.29966274e-01f, 4.73995635e-04f, -3.75688076e-02f, -2.30592415e-02f, -1.98138822e-02f, -3.90135974e-01f, -3.51523727e-01f, 3.39164466e-01f, -4.41711210e-02f, 1.32459626e-01f, -3.23991962e-02f,
  1.77745044e-01f, 1.33914426e-01f, 2.90740997e-01f, 1.56294361e-01f, 4.42617118e-01f, 1.84744179e-01f, 1.40597269e-01f, -3.03273857e-01f, -6.56743586e-01f, -4.81975079e-01f, 3.91336605e-02f, 4.30223256e-01f,
  -3.29939395e-01f, 2.18875837e-02f, -2.63866544e-01f, 1.85137764e-01f, -2.56710529e-01f, 2.73609966e-01f, -2.44915947e-01f, 6.15301490e-01f, -1.00283578e-01f, -1.65662229e-01f, -4.48452383e-01f, -1.24761224e-01f,
  1.38325572e-01f, -1.03691325e-01f, -8.62610564e-02f, -8.48379657e-02f, -2.61481144e-02f, -2.13620793e-02f, -1.02796920e-01f, 8.02140217e-03f, -2.62724817e-01f, 5.66949770e-02f, 1.95549857e-02f, -1.05359755e-01f,
  3.53411585e-02f, -5.91089437e-03f, 3.07919066e-02f, -2.09454909e-01f, -2.91146804e-02f, -5.28431870e-02f, 4.01603989e-02f, 1.39518250e-02f, -1.37949213e-01f, -2.10932523e-01f, -5.61026745e-02f, -2.05641333e-02f,
  -5.33212647e-02f, 8.85658562e-02f, 3.26567404e-02f, 9.83013026e-03f, 1.95304498e-01f, 5.88346981e-02f, -1.34938627e-01f, -1.30020857e-01f, -7.21716806e-02f, 1.66251197e-01f, 6.98635029e-03f, -1.40110731e-01f,
  1.94747344e-01f, -4.13989723e-01f, 6.88534081e-02f, 3.16431433e-01f, -1.78893223e-01f, 1.67783424e-01f, -1.18031308e-01f, -1.36113808e-01f, -5.09645604e-02f, 2.84137189e-01f, 1.31326288e-01f, -1.78967137e-02f,
  1.57270029e-01f, 1.14332912e-02f, -2.60101091e-02f, 6.92364797e-02f, -2.56849974e-02f, 1.48902699e-01f, -2.08672792e-01f, -1.03594989e-01f, 8.14306289e-02f, 1.50518149e-01f, 7.30335936e-02f, 1.76178291e-01f,
  9.86201838e-02f, 1.71335846e-01f, 2.48876922e-02f, -1.47764415e-01f, 1.42582312e-01f, -8.74851458e-03f, 2.10300475e-01f, 1.61791090e-02f, -3.32073331e-01f, -6.10105842e-02f, 2.89970450e-02f, 8.96913707e-02f,
  -1.90045927e-02f, -1.16298869e-01f, -2.11721361e-01f, -2.56202426e-02f, 1.65153101e-01f, -1.28255501e-01f, -9.52195097e-03f, -4.38203616e-03f, 4.70626205e-02f, -1.67663738e-01f, 1.42802462e-01f, -1.72148328e-02f,
  2.52314180e-01f, -2.53863871e-01f, 8.10209885e-02f, -1.43444296e-02f, 3.60519886e-02f, 6.92296103e-02f, 6.77869320e-02f, -1.84265539e-01f, -7.75236934e-02f, -8.49125460e-02f, -2.16029584e-02f, 1.71431139e-01f,
  -6.22965842e-02f, 3.14547122e-02f, 2.34697610e-02f, 2.79158205e-02f, 1.12725496e-02f, 3.02435309e-02f, -5.11044711e-02f, 3.63349617e-02f, 1.11045465e-01f, -5.21593168e-02f, 9.80117768e-02f, 1.19813398e-01f,
  1.30121723e-01f, -1.51533410e-02f, -1.31200075e-01f, -3.46104875e-02f, 4.70312983e-02f, -1.22977890e-01f, 5.72285950e-02f, -4.61372137e-02f, 4.17058468e-02f, -4.81133386e-02f, -3.98590490e-02f, 2.37199217e-02f,
  -6.63247779e-02f, -4.63804603e-03f, -1.25349328e-01f, 1.24304637e-01f, 8.97102803e-02f, -1.30460069e-01f, 2.25756466e-02f, 4.81678396e-02f, 5.25836758e-02f, 1.68339666e-02f, 2.24114209e-02f, -1.11135103e-01f,
  -7.33778030e-02f, 2.21095547e-01f, 3.77417840e-02f, -3.38404924e-02f, -2.02309936e-02f, 3.29581425e-02f, -7.11053759e-02f, -1.09888632e-02f, -3.70482355e-01f, 1.32727027e-01f, 3.98351904e-03f, 7.26856589e-02f,
  -4.84434403e-02f, -3.31182033e-02f, 2.54546455e-03f, -1.26160622e-01f, 9.02988836e-02f, -6.84958845e-02f, -3.18512656e-02f, -2.94547603e-02f, -8.15958679e-02f, 1.27074048e-01f, -7.11989328e-02f, 9.45150480e-03f,
  9.65989530e-02f, 2.01657899e-02f, 6.08960129e-02f, -9.22070071e-02f, 1.09220348e-01f, 9.15370230e-03f, 2.10344121e-02f, 6.36528358e-02f, -1.45072073e-01f, 8.82929042e-02f, 9.52236876e-02f, -1.28580481e-01f,
  2.16539904e-01f, 2.16913089e-01f, -6.51265029e-03f, -6.13002256e-02f, -2.20081881e-01f, 3.02343518e-01f, 5.47471456e-02f, 4.45299000e-02f, -9.58832502e-02f, -4.34695035e-02f, 7.56640881e-02f, -2.14468598e-01f,
  1.26505762e-01f, -4.62804176e-02f, -5.03154062e-02f, 4.60899733e-02f, -1.82333052e-01f, 1.47963211e-01f, 1.73753366e-01f, -8.32519308e-02f, -4.09212969e-02f, -1.57700285e-01f, -1.13730077e-02f, -4.25451249e-02f,
  8.41663480e-02f, -1.74547821e-01f, -1.57440994e-02f, -1.15621947e-01f, 1.21241063e-01f, -1.11994920e-02f, 2.51646578e-01f, -1.52349830e-01f, 1.53846532e-01f, 1.63185131e-03f, 5.58115691e-02f, -2.61003375e-02f,
  2.05214337e-01f, -7.21270544e-03f, 3.66773069e-01f, -3.49000812e-01f, -3.20901543e-01f, -2.06045598e-01f, 4.86688130e-02f, 2.63370842e-01f, 1.59974739e-01f, -1.21528283e-01f, -1.67677477e-01f, 1.37064964e-01f,
  -4.50730585e-02f, 1.28785014e-01f, -8.09114575e-02f, 2.71562904e-01f, -1.44149721e-01f, 4.25884090e-02f, -4.86033261e-02f, -5.89776644e-03f, 1.62888125e-01f, -1.50437010e-02f, -3.07460260e-02f, 8.77707079e-02f,
  -2.64840089e-02f, -1.50113001e-01f, 2.42768168e-01f, -4.30115759e-02f, 8.72098133e-02f, 1.10282682e-01f, -5.27502187e-02f, 5.65224998e-02f, 1.81747660e-01f, -3.63356061e-02f, 1.68591008e-01f, -9.31946933e-02f,
  -1.65734246e-01f, -3.62066180e-01f, 3.99765186e-02f, 1.06391177e-01f, 3.51057970e-04f, 1.38044329e-02f, -2.16853395e-01f, 1.93245664e-01f, -2.76062191e-02f, 9.38429981e-02f, -5.72793856e-02f, 6.76847324e-02f,
  -1.49520874e-01f, -1.70007259e-01f, -8.19348246e-02f, 1.38613209e-01f, -1.22746006e-01f, -8.61226246e-02f, -7.85112455e-02f, -2.49572322e-02f, -8.73256549e-02f, -2.62942791e-01f, 5.96242398e-03f, -4.73885946e-02f,
  2.55128704e-02f, 1.36927096e-02f, 7.11314604e-02f, -2.11498275e-01f, -5.01232557e-02f, -2.00292170e-01f, -5.02785258e-02f, -2.62883883e-02f, -1.74791813e-02f, -9.83499438e-02f, 8.59878287e-02f, 4.68404442e-02f,
  -5.73526211e-02f, 3.44051756e-02f, -2.29564477e-02f, -1.35593899e-02f, -8.11528508e-03f, -2.81570572e-02f, -4.35487740e-02f, -5.84604815e-02f, -7.45282173e-02f, -8.36404189e-02f, -2.91782562e-02f, 1.03761824e-02f,
  -9.67298746e-02f, 7.13186264e-02f, 8.85953605e-02f, 6.88855872e-02f, -8.95251259e-02f, -9.17958394e-02f, -2.25280896e-01f, -2.08582394e-02f, -7.15970248e-02f, 1.92268554e-03f, -1.08218916e-01f, -1.32488117e-01f,
  1.09316260e-02f, 2.59566884e-02f, 1.09177560e-01f, -1.13217108e-01f, 3.82517241e-02f, -5.88078052e-02f, -4.95626777e-02f, -1.84403863e-02f, -1.16353348e-01f, 1.56497769e-02f, 5.24305962e-02f, 4.21564095e-02f,
  -5.84542416e-02f, -1.76033318e-01f, 7.34589994e-02f, 1.04179345e-01f, -2.60418415e-01f, -1.31060511e-01f, -1.34856060e-01f, -2.71329097e-02f, 1.12577915e-01f, -7.75266886e-02f, 1.67602859e-02f, -1.56308204e-01f,
  -8.74096453e-02f, -9.88750458e-02f, -1.35081381e-01f, 4.42878436e-03f, 5.58212362e-02f, -2.08587751e-01f, 6.98909238e-02f, -4.48725373e-02f, 3.15486073e-01f, -4.17979620e-03f, -8.17763433e-03f, 4.68287729e-02f,
  -7.76109636e-01f, -7.40475416e-01f, 1.31761298e-01f, 5.80775619e-01f, 2.25974452e-02f, -1.05814040e-01f, -1.23020336e-02f, 3.06653380e-01f, -3.70721035e-02f, 6.13387488e-02f, -6.79221973e-02f, 3.65776867e-02f,
  -7.22260773e-02f, -3.27873938e-02f, 5.50725274e-02f, -5.19637875e-02f, -5.03918603e-02f, -3.40333246e-02f, 3.23009454e-02f, -2.65607070e-02f, -5.41294599e-03f, 4.72349860e-02f, -7.57973045e-02f, -1.39414683e-01f,
  -1.22491203e-01f, 5.55307977e-02f, 8.35688934e-02f, 7.58948624e-02f, -1.12118289e-01f, 1.18590899e-01f, -1.12949923e-01f, 5.80995716e-02f, 6.85390532e-01f, 7.17572570e-01f, -9.26298350e-02f, -5.69323480e-01f,
  -1.06542513e-01f, 6.35480285e-02f, -5.67356609e-02f, -3.02902818e-01f, -3.31959613e-02f, -7.84751028e-02f, -1.63662538e-01f, 1.46888345e-01f, -2.24752426e-02f, 1.86273530e-01f, -3.75012234e-02f, 2.10830867e-02f,
  -1.27025276e-01f, -6.34158969e-01f, -1.04835942e-01f, -6.01611249e-02f, -5.90780042e-02f, 1.10364538e-02f, 9.67546478e-02f, -5.54063879e-02f, -1.76548302e-01f, 1.25170395e-01f, -7.07231611e-02f, 2.09096164e-01f,
  -1.04718320e-01f, -2.16897298e-02f, 2.03586489e-01f, -3.83339077e-01f, -1.60719424e-01f, -1.61924437e-02f, -4.69646752e-02f, -1.11613803e-01f, 8.26001465e-02f, -8.31171498e-02f, -3.42604667e-02f, 1.83408007e-01f,
  1.78334594e-01f, 1.82501659e-01f, 3.80866267e-02f, 1.06750675e-01f, 1.78215444e-01f, 3.77470590e-02f, -7.36872032e-02f, 9.82659832e-02f, 1.20407762e-02f, 4.14704718e-02f, 9.20028016e-02f, 8.01282078e-02f,
  1.88060313e-01f, -1.89995632e-01f, -6.65397048e-02f, 4.85278741e-02f, 1.62721753e-01f, 1.02268435e-01f, -7.45635778e-02f, -1.53613374e-01f, -1.19591847e-01f, 5.31627377e-03f, -1.00757144e-01f, 6.08096318e-03f,
  1.56460419e-01f, 5.60314544e-02f, -9.16043743e-02f, -5.43935485e-02f, 5.72465174e-02f, -9.91325825e-03f, 1.10482544e-01f, 1.45263791e-01f, -1.19944341e-01f, -4.21576388e-02f, -1.18839346e-01f, -6.67478815e-02f,
  -1.46436468e-01f, 1.09293155e-01f, -2.02669986e-02f, -7.64143839e-02f, -3.24452035e-02f, -1.11535259e-01f, 4.21879500e-01f, -1.26761675e-01f, -5.02871759e-02f, 4.01839495e-01f, 6.31856546e-02f, -3.05607333e-04f,
  -8.20866078e-02f, -2.33351991e-01f, 1.05917633e-01f, 5.63930627e-03f, -7.15702400e-02f, 3.75935137e-02f, 7.94817358e-02f, 1.69690862e-01f, -1.48732617e-01f, 1.20908082e-01f, 1.23060584e-01f, 9.95568931e-02f,
  1.13649920e-01f, 3.58257562e-01f, 1.58515468e-01f, 6.40520528e-02f, 4.56964523e-02f, -5.50762773e-01f, 5.43627143e-01f, 3.79849924e-03f, -2.78885365e-01f, 3.80781561e-01f, 1.09726287e-01f, 2.13918120e-01f,
  -1.14087887e-01f, 1.94207519e-01f, 5.62892146e-02f, 9.09928530e-02f, -1.31215096e-01f, 6.00032844e-02f, 2.28506178e-01f, 1.69186853e-03f, -4.73469198e-02f, -2.85478476e-02f, -9.17625427e-03f, 3.03925592e-02f,
  1.54830534e-02f, -2.37166449e-01f, -1.44498602e-01f, 1.04531370e-01f, -3.26127373e-02f, -4.26608175e-02f, 8.88962671e-02f, 6.82923719e-02f, -3.23266745e-01f, 1.89268529e-01f, 1.39682040e-01f, 2.12024637e-02f,
  -2.44957060e-02f, -8.86174589e-02f, -1.38617959e-02f, -5.73285297e-02f, 4.76219691e-02f, -8.04036334e-02f, 1.61494598e-01f, 2.54216394e-03f, -6.31027445e-02f, 2.43542101e-02f, -4.32562232e-02f, -5.30853085e-02f,
  -1.92667749e-02f, 1.32507309e-01f, 1.58815250e-01f, -7.32379854e-02f, -8.70680436e-02f, -1.02845423e-01f, 5.99618480e-02f, -7.56473243e-02f, 1.03091612e-01f, -8.32871199e-02f, -6.30873963e-02f, 1.12494305e-01f,
  -8.14563259e-02f, -1.33603945e-01f, 1.06341220e-01f, 4.64338996e-02f, -3.56750526e-02f, -1.24823622e-01f, 3.05964053e-02f, -1.81939319e-01f, -9.59854573e-03f, 2.56484628e-01f, 3.70576270e-02f, 4.19784859e-02f,
  -1.48589909e-01f, -1.17175011e-02f, 4.37789410e-02f, -1.79413066e-03f, 1.74561620e-01f, -4.87578735e-02f, -8.61850828e-02f, -8.04278553e-02f, 1.48113638e-01f, -8.63976106e-02f, 1.88980609e-01f, 1.49654776e-01f,
  3.63056064e-01f, -3.35345306e-02f, 9.02813002e-02f, 3.12143713e-01f, -1.27274752e-01f, -1.35614015e-02f, -1.92960557e-02f, -9.91773307e-02f, -4.74611111e-02f, -5.26115224e-02f, -1.18826725e-01f, -2.80799121e-02f,
  1.81378797e-01f, -3.76509912e-02f, 1.72499493e-02f, -5.53404801e-02f, -2.55719274e-01f, 1.44716352e-01f, -1.49333641e-01f, 4.76544648e-02f, -1.91742912e-01f, 6.71322569e-02f, 1.84982672e-01f, 9.32246149e-02f,
  -1.13724783e-01f, 4.57898863e-02f, -3.41983624e-02f, -2.71555502e-02f, -7.24509126e-03f, 1.24178171e-01f, 1.01354249e-01f, 4.90680113e-02f, 2.12204501e-01f, -1.80956423e-01f, -3.22463997e-02f, 8.75777751e-02f,
  -2.11616695e-01f, 1.17663436e-01f, -6.38926923e-02f, 8.31121504e-02f, 6.12402782e-02f, 1.57184694e-02f, -7.98883364e-02f, 1.26409411e-01f, 3.45263705e-02f, -3.72974724e-02f, 1.20078400e-02f, -5.42351529e-02f,
  -1.18579000e-01f, 1.00884445e-01f, 2.38710921e-02f, 2.25346610e-02f, -1.40436161e-02f, 7.88633749e-02f, 7.56655708e-02f, 7.27526993e-02f, 8.71770605e-02f, 3.71936336e-02f, 2.04073209e-02f, -9.51438844e-02f,
  -1.31510064e-01f, 1.04727941e-02f, 5.50751649e-02f, -1.61140934e-01f, -9.38713402e-02f, 4.56855074e-02f, 6.24029227e-02f, 1.12958327e-01f, -6.69565946e-02f, -2.57815868e-02f, -3.24041769e-02f, 1.38312569e-02f,
  4.36156504e-02f, 4.01788950e-03f, 1.11809470e-01f, -2.88240090e-02f, 5.87441809e-02f, -1.00717321e-02f, 6.35029227e-02f, -1.87763609e-02f, 1.19806163e-01f, -4.89762761e-02f, 5.81627972e-02f, -1.98386405e-02f,
  1.70473773e-02f, -8.31359178e-02f, 6.15858398e-02f, -7.30369240e-02f, 6.71796501e-02f, -7.81755149e-02f, -2.44820222e-01f, 1.56797856e-01f, 6.62468746e-02f, 2.19082441e-02f, -8.34963098e-02f, 8.13715681e-02f,
  3.94462701e-03f, -1.01300754e-01f, 1.21553607e-01f, 4.85194549e-02f, 1.72245950e-01f, 9.78558436e-02f, -8.58978927e-02f, -2.22789012e-02f, 8.94051567e-02f, -3.63063142e-02f, 4.90533933e-03f, -8.29218328e-02f,
  8.63362625e-02f, -1.75538272e-01f, 1.14036605e-01f, 5.40348748e-03f, -1.66525349e-01f, 4.99700313e-04f, -1.85359363e-02f, 5.65951578e-02f, 2.91545428e-02f, -6.73121512e-02f, -1.95652619e-02f, -4.59341973e-01f,
  -6.54096156e-03f, 9.26779360e-02f, -5.88606820e-02f, -6.35606647e-02f, 1.76958516e-02f, -5.09872958e-02f, 1.26734614e-01f, -2.54749507e-02f, -7.64195323e-02f, 2.11556032e-02f, -2.07193960e-02f, -4.80996212e-03f,
  1.50634870e-01f, -3.26153375e-02f, 1.01279967e-01f, 2.59637218e-02f, 9.23553780e-02f, 2.51844935e-02f, -1.51891662e-02f, -6.98327124e-02f, -1.61057279e-01f, 8.83825868e-02f, -7.67746344e-02f, -1.29217263e-02f,
  1.13425344e-01f, 5.02325892e-02f, -6.46171253e-03f, -7.64594749e-02f, -2.70034540e-02f, -3.16683576e-02f, -3.48824114e-02f, 4.35265638e-02f, 1.09409772e-01f, -2.13095173e-02f, 6.39043981e-03f, -1.92638561e-02f,
  -2.02905461e-02f, -3.36758420e-02f, -1.26527980e-01f, -6.83308393e-02f, 1.88125595e-02f, 1.13167293e-01f, -7.62342736e-02f, -2.19883746e-03f, -3.64258252e-02f, 1.22044280e-01f, -8.38890448e-02f, -2.61517260e-02f,
  1.75591812e-01f, 7.58745521e-02f, -3.13455984e-02f, -3.61239947e-02f, 7.94566423e-02f, -1.43705979e-01f, -2.38641240e-02f, 5.26277535e-02f, 2.06251927e-02f, -1.68270674e-02f, -7.96301886e-02f, -7.07311854e-02f,
  1.18182106e-02f, 5.18240146e-02f, 2.15693355e-01f, -8.99262205e-02f, -5.46387546e-02f, -1.99977867e-03f, -5.83135858e-02f, -1.35301203e-01f, -7.43171945e-02f, -3.61378789e-02f, -7.00429678e-02f, -3.83101702e-02f,
  -9.54836085e-02f, -1.24629401e-02f, -4.13796082e-02f, -5.00282459e-02f, -5.80233932e-02f, -1.40494600e-01f, 2.36579049e-02f, -2.49714218e-02f, 2.33052615e-02f, -4.86114398e-02f, 2.43722890e-02f, -2.25735083e-02f,
  3.71528305e-02f, -1.61433741e-02f, -1.08323187e-01f, -1.98692530e-02f, -1.84615448e-01f, 1.01636402e-01f, -9.05371159e-02f, -7.97370896e-02f, 1.04738036e-02f, 7.42053092e-02f, 4.98886369e-02f, -1.15706928e-01f
};

// bias shape: {32}
static const int bias_rank = 1;
static const int32_t bias_shape[1] = { 32 };
static const size_t bias_size = 32u;
static const float bias[32] = {
  -1.07295537e+00f, -6.86511576e-01f, -7.64074922e-01f, -1.32086730e+00f, -1.26957083e+00f, -2.66271561e-01f, -1.37818968e+00f, -1.07867813e+00f, -1.05593061e+00f, -9.63578522e-01f, -1.32667470e+00f, -1.23874879e+00f,
  -7.29402721e-01f, -1.07937193e+00f, -1.02576947e+00f, -1.15119624e+00f, -9.30210471e-01f, -1.19425988e+00f, -1.25201535e+00f, -1.56224859e+00f, -1.07688379e+00f, -1.11775577e+00f, -8.19011688e-01f, -9.76541460e-01f,
  -1.38131177e+00f, -7.21689820e-01f, -1.33559489e+00f, -4.58516896e-01f, -1.16329074e+00f, -4.19477016e-01f, -1.04027867e+00f, -1.21433425e+00f
};

// kernel_1 shape: {7, 32, 32}
static const int kernel_1_rank = 3;
static const int32_t kernel_1_shape[3] = { 7, 32, 32 };
static const size_t kernel_1_size = 7168u;
static const float kernel_1[7168] = {
  -3.99655849e-01f, 1.94705203e-02f, 1.08683773e-03f, -5.55034503e-02f, -1.79122046e-01f, 1.49657915e-03f, -1.06187791e-01f, -3.42997760e-01f, -5.07636249e-01f, 3.90520319e-02f, -4.13307995e-01f, -2.28768010e-02f,
  6.62316456e-02f, 4.16366607e-02f, -1.69587079e-02f, -1.70406085e-02f, -3.91516052e-02f, -5.76958954e-02f, -1.55200675e-01f, 8.09429660e-02f, -4.94367741e-02f, 1.72445446e-01f, 4.64280471e-02f, 2.38095000e-02f,
  2.64567304e-02f, -1.11573286e-01f, 1.56215578e-02f, 6.75449744e-02f, -2.90029347e-02f, -2.96375919e-02f, 2.03119382e-01f, -1.54344469e-01f, 3.02414596e-01f, -1.33447669e-04f, -2.89979339e-01f, -1.72358770e-02f,
  -5.55093646e-01f, -1.05329923e-01f, -1.85627088e-01f, -2.11151689e-02f, -3.16376351e-02f, -5.39340258e-01f, -3.12273324e-01f, -1.59902588e-01f, -5.91097726e-03f, 3.35744917e-02f, 4.48139124e-02f, -1.05508910e-02f,
  2.46654563e-02f, -3.99714299e-02f, -4.39297641e-03f, 7.51917949e-03f, 2.13403739e-02f, 8.70581642e-02f, 3.78921106e-02f, -1.19922109e-01f, -8.13065842e-02f, -1.33354422e-02f, 2.63074003e-02f, 2.14721654e-02f,
  -2.17822492e-01f, 3.44437771e-02f, 5.19417860e-02f, -2.47646589e-03f, 1.63664535e-01f, -2.07657814e-02f, -2.99965680e-01f, -2.20713462e-03f, 7.15454072e-02f, 3.17732841e-02f, -3.08765173e-01f, 4.50128205e-02f,
  -7.69415572e-02f, -3.89693044e-02f, 1.56039923e-01f, -4.03741777e-01f, 1.36442348e-01f, -8.51764996e-03f, 1.15072928e-01f, 2.45103855e-02f, 8.48646760e-02f, -3.18657681e-02f, -3.11256628e-02f, -5.76851249e-01f,
  2.63868854e-03f, 6.20334558e-02f, 8.28576740e-03f, -4.86244485e-02f, -3.40905855e-03f, 1.30904745e-02f, 1.43952519e-02f, -4.59766597e-01f, 3.46165220e-03f, 1.84379634e-03f, -3.78312498e-01f, -1.61541589e-02f,
  8.48481897e-03f, -6.82038143e-02f, -2.34325960e-01f, 3.68157886e-02f, 1.82947218e-01f, -5.02462685e-02f, 2.22958311e-01f, 4.49160598e-02f, 3.58421683e-01f, 2.83854771e-02f, -4.00868654e-01f, 2.05536019e-02f,
  4.63273935e-02f, 1.46839574e-01f, -4.99792919e-02f, 3.85229923e-02f, 1.16200790e-01f, 1.76437721e-02f, -1.58302039e-02f, -8.47270638e-02f, -1.64592117e-02f, 3.30623269e-01f, -1.57761611e-02f, -4.92517948e-02f,
  5.07604145e-02f, -2.47858986e-02f, -4.92467321e-02f, 4.05056268e-01f, -1.03909359e-03f, -1.50978521e-01f, 1.19227618e-01f, 7.22486898e-02f, 1.58431698e-02f, -2.27580160e-01f, -2.02861160e-01f, -6.02041520e-02f,
  -6.55434057e-02f, -3.63274687e-03f, -1.49833500e-01f, 9.12510380e-02f, 3.73517089e-02f, 7.06203356e-02f, 1.29438996e-01f, -1.49672359e-01f, -1.27711361e-02f, -2.34846383e-01f, -2.50440031e-01f, 2.57008355e-02f,
  -6.08691853e-03f, 5.67163192e-02f, 6.16856702e-02f, -4.70885336e-01f, -5.88327050e-02f, -1.04904503e-01f, -6.81187510e-02f, -2.49027908e-02f, -1.13123387e-01f, -9.48504638e-03f, -3.35290372e-01f, -2.48345494e-01f,
  -7.86740892e-03f, -8.72064903e-02f, -2.11354434e-01f, 3.73643823e-02f, -2.07045004e-02f, 5.08847553e-03f, -1.04719371e-01f, -6.85089175e-03f, 6.50204793e-02f, 9.18597355e-03f, -6.71766372e-03f, -1.82979301e-01f,
  -1.86658546e-01f, -8.02947860e-03f, 8.95649344e-02f, 5.82589917e-02f, -2.06526108e-02f, 7.84120113e-02f, 4.23293859e-02f, -9.71081760e-03f, 8.95604491e-03f, -1.12483069e-01f, -3.73417549e-02f, -1.30721517e-02f,
  -1.89524181e-02f, 5.39030880e-03f, 5.68152741e-02f, -1.67549383e-02f, 1.64290722e-02f, 5.57377003e-03f, -3.97272825e-01f, 4.26628441e-02f, -2.78933607e-02f, -4.15115021e-02f, 4.72889766e-02f, 3.64246108e-02f,
  -6.44866303e-02f, -1.94694120e-02f, 1.76251203e-01f, -1.24384053e-01f, 6.07691482e-02f, -2.75732558e-02f, 3.52875799e-01f, -1.86325684e-01f, -9.29848999e-02f, 5.76429777e-02f, -1.52320042e-01f, 3.02656561e-01f,
  -1.59447834e-01f, 3.85111570e-02f, 6.67254906e-03f, -1.43804140e-02f, -3.23372744e-02f, 9.33333412e-02f, -1.07137658e-01f, 4.57536709e-03f, -6.62942464e-03f, 2.58297920e-01f, 1.32261336e-01f, 7.57777765e-02f,
  3.31766345e-02f, -1.50922373e-01f, -2.81838238e-01f, -5.11045335e-03f, 1.17308758e-02f, -3.52447420e-01f, 2.02218667e-01f, -8.82539805e-03f, 5.37673123e-02f, 3.60759087e-02f, -9.93391499e-02f, 1.11930825e-01f,
  -2.04528242e-01f, -1.58305410e-02f, -5.00216782e-01f, 9.32166073e-03f, -1.24729112e-01f, 4.99337800e-02f, 5.71935400e-02f, -1.33535638e-01f, 3.95313613e-02f, -1.91143438e-01f, -2.21212637e-02f, 2.00118367e-02f,
  2.31447518e-02f, -2.81716418e-02f, -2.78717633e-02f, -1.88695211e-02f, 2.22497284e-02f, -2.65340477e-01f, -7.48397186e-02f, 3.35966833e-02f, -1.60607789e-02f, -3.79264131e-02f, -1.06447907e-02f, -5.73225498e-01f,
  -1.18773850e-02f, 1.07708693e-01f, 7.09406361e-02f, 8.87353495e-02f, 3.66341211e-02f, -2.23028168e-01f, -6.21291459e-01f, -4.82380688e-02f, -3.98051381e-01f, 1.09281667e-01f, 2.23399490e-01f, 3.64679354e-03f,
  3.64600092e-01f, -1.94323927e-01f, -5.18089116e-01f, -2.32231677e-01f, -4.02825661e-02f, -2.21957732e-02f, -1.81891575e-01f, -5.72522124e-03f, 1.89251006e-02f, 9.51725990e-02f, 7.81674832e-02f, -8.22858047e-03f,
  -2.09483039e-02f, 1.34710446e-01f, -3.78932320e-02f, 8.13642144e-02f, -1.87300980e-01f, 9.41160321e-02f, 7.98682272e-02f, -5.01137115e-02f, -3.65020111e-02f, -7.56138936e-02f, -6.14163838e-02f, 1.16079217e-02f,
  -2.02768240e-02f, -1.31027550e-01f, -6.67332262e-02f, 1.00608081e-01f, 3.40514220e-02f, -1.36639625e-02f, 6.50058873e-03f, 1.59951467e-02f, -1.55406043e-01f, -5.03826216e-02f, -4.65162754e-01f, 5.49838096e-02f,
  -3.17374133e-02f, 1.84857529e-02f, -1.23070844e-01f, 3.19366083e-02f, 3.38075683e-02f, -4.07393178e-04f, 5.32452902e-03f, 1.76045913e-02f, -6.06721500e-04f, 2.58121379e-02f, -2.18068925e-03f, 6.66176062e-03f,
  3.27670537e-02f, -2.72783544e-02f, 4.01675403e-02f, -3.06178123e-01f, 3.88870798e-02f, -2.47223023e-02f, -1.54390514e-01f, 1.72465909e-02f, 6.05438389e-02f, -6.84540197e-02f, -2.89894044e-01f, -1.98346421e-01f,
  -3.29934135e-02f, -3.62329409e-02f, -4.47303891e-01f, -1.08413741e-01f, 1.64205641e-01f, 6.07932582e-02f, -4.28798229e-01f, -3.89936194e-02f, -1.83212519e-01f, -2.12683324e-02f, -1.61656499e-01f, -4.27252054e-03f,
  -1.27545029e-01f, -9.23739895e-02f, -2.75103956e-01f, 5.13929576e-02f, -1.70068458e-01f, 2.56578270e-02f, -8.42711106e-02f, -1.21705256e-01f, -3.93042475e-01f, -2.35146265e-02f, -3.33973497e-01f, 1.04771875e-01f,
  -3.60560566e-02f, 1.28074689e-02f, 3.66313085e-02f, -5.63348420e-02f, -3.49430889e-02f, 1.32091358e-01f, 3.61388512e-02f, -8.85631368e-02f, 3.95579450e-02f, -3.09146848e-02f, -2.24909291e-01f, -2.89099872e-01f,
  -2.36675993e-01f, -1.02647036e-01f, -2.59146720e-01f, -1.86033055e-01f, -1.49183378e-01f, -8.24859366e-02f, -1.18471915e-02f, 3.71731381e-04f, 9.13902223e-02f, -7.05850795e-02f, 8.33880529e-02f, -1.94585621e-02f,
  6.26059324e-02f, -3.34032159e-03f, 5.40158451e-02f, -1.83130521e-03f, 8.74624308e-03f, -4.17705327e-02f, -2.08451316e-01f, -5.94156273e-02f, -8.93875659e-02f, -1.43955583e-02f, 4.91259508e-02f, 1.64382067e-02f,
  -1.25992205e-03f, -7.69741386e-02f, 4.97276522e-02f, 3.28592733e-02f, -7.84383714e-02f, -6.47258386e-02f, -2.52247788e-02f, -9.78486165e-02f, -4.76931483e-02f, 5.77730909e-02f, -1.56543091e-01f, 3.30595486e-02f,
  -8.30912516e-02f, 9.71587747e-03f, 1.81931108e-01f, 3.28041874e-02f, -1.13119528e-01f, 1.07424922e-01f, -3.00453342e-02f, 7.26813748e-02f, 1.42187607e-02f, -1.17063276e-01f, -2.15388779e-02f, 1.61108851e-01f,
  -2.07571071e-02f, -1.66849662e-02f, 6.09918758e-02f, -4.53865714e-02f, -1.08978683e-02f, 1.37306293e-02f, -4.66007553e-02f, 3.79728191e-02f, -1.70103475e-01f, 4.33366261e-02f, 1.02455162e-01f, -2.12582409e-01f,
  -1.70255333e-01f, -1.00124348e-02f, -5.15163504e-02f, -6.42010104e-03f, -9.40947905e-02f, -5.30264750e-02f, -3.94371040e-02f, -2.91184545e-01f, 4.60603982e-02f, 8.19002464e-03f, -1.36387825e-01f, 2.27914806e-02f,
  -3.11099458e-02f, -3.31849456e-02f, -2.92627607e-03f, -6.33127809e-01f, -5.58008105e-02f, -2.32915550e-01f, 1.49242617e-02f, -5.01898564e-02f, -5.04499907e-03f, -1.81452222e-02f, -3.81480187e-01f, -6.45433843e-01f,
  2.87998351e-03f, -4.68692109e-02f, -5.74442446e-01f, -2.51828972e-02f, -1.00876391e-01f, -5.03974110e-02f, -1.97389238e-02f, -1.11437980e-02f, -2.76238304e-02f, 8.29302222e-02f, 3.91771905e-02f, 4.19697575e-02f,
  -1.35694906e-01f, 2.12196657e-03f, 4.49303444e-03f, 9.85914618e-02f, -9.20007192e-03f, 6.38878420e-02f, 3.18777934e-02f, 2.08702218e-02f, -1.35196209e-01f, 9.37483013e-02f, 1.31602257e-01f, -8.91289487e-02f,
  -1.82051007e-02f, -3.19033712e-02f, 5.63459434e-02f, 4.52328287e-02f, 2.89405715e-02f, 9.26556364e-02f, -2.40898803e-01f, -4.67357375e-02f, -6.78417310e-02f, 1.43038973e-01f, 7.56396800e-02f, -1.53323129e-01f,
  -4.72033396e-02f, -2.23799527e-01f, -2.73362249e-01f, -8.39028656e-02f, -4.07637060e-01f, -7.64112547e-02f, -1.92176215e-02f, -4.83966589e-01f, -2.79878676e-01f, 1.85918603e-02f, -1.41314879e-01f, -1.97156388e-02f,
  -4.31324802e-02f, 2.29173265e-02f, -1.18661644e-02f, 6.21853210e-02f, -1.44058496e-01f, 9.74250287e-02f, -1.62132885e-02f, -1.09944873e-01f, -1.21630810e-01f, 1.84908062e-02f, 7.11612776e-02f, 2.53170673e-02f,
  3.75128277e-02f, 1.05213979e-02f, 1.21935122e-01f, 7.45128617e-02f, -3.36723551e-02f, 9.10416804e-03f, -1.27806410e-01f, -2.00072415e-02f, 6.28117993e-02f, 4.42699529e-02f, -5.47714531e-02f, 4.76790182e-02f,
  -1.59357369e-01f, -1.33439135e-02f, -5.24915382e-02f, -2.25074634e-01f, -5.70965707e-02f, -2.29972109e-01f, -4.62411463e-01f, -1.21175416e-01f, 2.10595205e-02f, -6.75251260e-02f, -1.28083184e-01f, 2.84881704e-02f,
  -1.96757466e-01f, -1.37967065e-01f, -5.43751061e-01f, 2.96179373e-02f, -6.99577257e-02f, -1.77874435e-02f, -6.01514317e-02f, -1.06137797e-01f, -6.97075948e-02f, -7.53763542e-02f, 6.76673576e-02f, 2.00550980e-03f,
  1.04919419e-01f, -2.39815656e-02f, -4.31688651e-02f, 7.57984892e-02f, 6.20903634e-03f, 1.36591764e-02f, -3.31720635e-02f, -2.31699683e-02f, -1.25607178e-01f, 4.81458232e-02f, -1.66571457e-02f, 7.69157931e-02f,
  -5.93012422e-02f, -2.89110184e-01f, -2.26727843e-01f, -3.09586897e-02f, -2.78069377e-01f, 7.65515193e-02f, -1.69171795e-01f, -2.94204891e-01f, -2.16518249e-02f, -1.61797315e-01f, -3.17760229e-01f, -4.67664748e-02f,
  3.78128290e-02f, -3.88393030e-02f, -2.59508401e-01f, -6.99313760e-01f, -8.23598057e-02f, -1.99697539e-02f, -2.94045396e-02f, 1.42012881e-02f, -1.04922559e-02f, -1.52421203e-02f, -8.48765522e-02f, 3.07200458e-02f,
  -2.64117539e-01f, 2.54871678e-02f, 2.04445079e-01f, 1.08566463e-01f, -6.33507520e-02f, -4.95790280e-02f, -2.09106669e-01f, -6.15924932e-02f, -2.38809317e-01f, -3.82252298e-02f, -1.81651309e-01f, -6.71798363e-02f,
  -1.46623269e-01f, -2.22765297e-01f, -6.58452362e-02f, -3.69112007e-02f, 8.05446133e-03f, -1.06162578e-02f, 7.26385266e-02f, -8.23211949e-03f, 1.54192755e-02f, -4.46027331e-02f, -9.42213554e-03f, -1.92638654e-02f,
  -5.36137708e-02f, -4.22842503e-02f, 1.19216572e-02f, -2.14592904e-01f, 4.07977365e-02f, -2.22975552e-01f, -1.19650446e-01f, -9.68089793e-03f, -3.90654430e-02f, -2.74281710e-01f, 1.01766028e-02f, 3.08556054e-02f,
  -5.29997759e-02f, -3.12633952e-03f, -4.89241749e-01f, 1.35601591e-02f, 7.54011329e-03f, 2.83699520e-02f, -5.95564425e-01f, -2.92684287e-01f, -3.50393593e-01f, -6.48385286e-02f, -8.51801410e-02f, -4.56230268e-02f,
  -6.25954270e-02f, 1.87896803e-04f, -3.13406050e-01f, -2.88294666e-02f, -1.45857945e-01f, -1.29005704e-02f, -2.27431431e-01f, -6.34690642e-01f, -5.63662887e-01f, -1.23302422e-01f, 7.85736814e-02f, 1.28542736e-01f,
  1.05096653e-01f, -2.63788283e-01f, 5.15368916e-02f, -3.66073102e-02f, -2.01104712e-02f, 4.94446270e-02f, -7.49348700e-02f, 1.21515401e-01f, 1.92158204e-02f, 1.03224188e-01f, 4.05974388e-02f, 1.07107835e-03f,
  -5.49438968e-02f, -4.15092185e-02f, -1.73737198e-01f, 1.61972076e-01f, -1.00070275e-01f, -5.50798662e-02f, 5.44648990e-03f, -9.29383747e-03f, -3.04670166e-02f, 1.49193212e-01f, -3.10605675e-01f, -3.66122007e-01f,
  9.70069319e-03f, -6.88227415e-02f, -1.03353076e-01f, -2.54209321e-02f, -2.27296930e-02f, 5.53640444e-03f, -4.91189986e-01f, -5.04639298e-02f, -1.74512565e-01f, -2.16967966e-02f, -4.09057103e-02f, 1.59104203e-03f,
  -4.49726701e-01f, 1.70909241e-03f, 3.36020112e-01f, 8.77517387e-02f, 1.40204579e-01f, -2.56968677e-01f, 7.83982873e-02f, -4.54101712e-01f, 7.73211196e-02f, -1.40864909e-01f, 3.06638867e-01f, 4.76456247e-03f,
  2.63139070e-03f, 5.48455771e-03f, -1.03519730e-01f, -1.82921980e-02f, -1.58633515e-02f, -8.29156265e-02f, 6.54619478e-04f, 1.39769077e-01f, -3.98714691e-02f, 4.10939604e-02f, -1.52705349e-02f, -2.46738996e-02f,
  2.92013362e-02f, 7.68049899e-03f, -5.20375848e-01f, 4.85752001e-02f, -1.83882974e-02f, 8.27374756e-02f, 3.63130234e-02f, -3.27613726e-02f, 2.40982268e-02f, 2.21983790e-02f, -4.05490458e-01f, -7.76944309e-02f,
  -9.64033604e-02f, 7.26743089e-03f, -1.30268767e-01f, -3.68930846e-01f, -1.35742337e-01f, -5.03721572e-02f, -1.48297906e-01f, -2.29283981e-02f, -4.44881897e-03f, 2.28225049e-02f, 6.04418740e-02f, -7.74807250e-03f,
  -1.35160193e-01f, 3.47629823e-02f, 2.71803498e-01f, 3.11814640e-02f, 1.14404604e-01f, -7.77816027e-03f, -8.22291058e-03f, 3.91159859e-03f, 3.38560604e-02f, -2.44764462e-02f, -2.07356334e-01f, -9.23391134e-02f,
  -7.79327825e-02f, -3.10117453e-02f, -5.30672260e-02f, 1.03064127e-01f, -8.07349384e-02f, -1.07603490e-01f, -1.43796101e-01f, -2.05523953e-01f, 3.03322915e-02f, -4.01911102e-02f, -1.11203827e-01f, 1.47604113e-02f,
  -4.30914722e-02f, -1.44344950e-02f, 7.11366087e-02f, -4.82341975e-01f, 2.69527305e-02f, 1.77320894e-02f, -5.96890926e-01f, -3.19202542e-02f, 3.05570830e-02f, -1.80228837e-02f, 7.03690574e-02f, -7.23298252e-01f,
  6.77920226e-03f, -3.84754292e-03f, 1.10328831e-02f, -2.92027984e-02f, 6.10404788e-03f, -3.99334431e-02f, -7.13888258e-02f, -4.86898452e-01f, 5.72402813e-02f, -1.00612797e-01f, -2.42996797e-01f, 1.61087602e-01f,
